svm_type c_svc
kernel_type rbf
gamma 8
nr_class 2
total_sv 167
rho 1.86269
label 1 -1
nr_sv 115 52
SV
0.4052359655897781 1:0 2:0 3:0 4:0 5:0 6:0 7:0.00775194 8:0 9:0 10:0 11:0 12:0.00775194 13:0 14:0 15:0 16:0 17:0 18:0 19:0.00775194 20:0 21:0 22:0 23:0 24:0 25:0 26:0 27:0 28:0 29:0.00775194 30:0.00775194 31:0 32:0 33:0 34:0 35:0 36:0 37:0 38:0 39:0 40:0 41:0 42:0 43:0 44:0 45:0 46:0.0232558 47:0 48:0 49:0 50:0.00775194 51:0.00775194 52:0 53:0 54:0 55:0 56:0 57:0 58:0 59:0 60:0 61:0.00775194 62:0 63:0.00775194 64:0.00775194 65:0 66:0.00775194 67:0 68:0 69:0.00775194 70:0 71:0 72:0 73:0 74:0 75:0 76:0 77:0 78:0.00775194 79:0 80:0 81:0 82:0 83:0 84:0 85:0 86:0 87:0 88:0 89:0 90:0 91:0 92:0 93:0 94:0.0387597 95:0 96:0 97:0 98:0 99:0 100:0 101:0 102:0 103:0 104:0 105:0 106:0 107:0 108:0 109:0 110:0 111:0 112:0 113:0 114:0 115:0 116:0 117:0 118:0 119:0 120:0 121:0 122:0 123:0 124:0.00775194 125:0 126:0 127:0 128:0 129:0 130:0 131:0 132:0 133:0 134:0 135:0 136:0 137:0 138:0 139:0 140:0 141:0 142:0 143:0.00775194 144:0 145:0 146:0 147:0 148:0 149:0 150:0 151:0 152:0 153:0 154:0 155:0 156:0 157:0 158:0 159:0 160:0 161:0 162:0 163:0 164:0 165:0 166:0.00775194 167:0 168:0 169:0 170:0 171:0.00775194 172:0 173:0 174:0 175:0 176:0 177:0 178:0 179:0 180:0 181:0 182:0 183:0 184:0 185:0 186:0 187:0 188:0.00775194 189:0 190:0 191:0 192:0 193:0 194:0.00775194 195:0 196:0 197:0 198:0 199:0 200:0 201:0 202:0 203:0 204:0 205:0 206:0 207:0 208:0 209:0 210:0 211:0 212:0 213:0 214:0 215:0 216:0 217:0 218:0 219:0 220:0 221:0 222:0 223:0.00775194 224:0 225:0 226:0 227:0 228:0 229:0 230:0 231:0 232:0 233:0 234:0 235:0 236:0 237:0 238:0 239:0 240:0 241:0 242:0 243:0 244:0 245:0 246:0 247:0.00775194 248:0 249:0 250:0 251:0 252:0 253:0 254:0 255:0 256:0 257:0 258:0 259:0 260:0 261:0 262:0 263:0 264:0 265:0 266:0 267:0 268:0 269:0 270:0 271:0 272:0 273:0 274:0.00775194 275:0.00775194 276:0 277:0 278:0 279:0 280:0 281:0 282:0 283:0 284:0 285:0 286:0 287:0 288:0 289:0 290:0 291:0 292:0 293:0 294:0 295:0 296:0 297:0 298:0 299:0 300:0 301:0.00775194 302:0 303:0 304:0 305:0 306:0 307:0 308:0 309:0 310:0 311:0 312:0.00775194 313:0 314:0 315:0 316:0 317:0 318:0.0155039 319:0 320:0 321:0 322:0.00775194 323:0.00775194 324:0 325:0 326:0 327:0 328:0 329:0 330:0 331:0 332:0 333:0 334:0.00775194 335:0 336:0 337:0 338:0 339:0 340:0.0155039 341:0 342:0 343:0 344:0 345:0 346:0 347:0 348:0 349:0 350:0 351:0 352:0 353:0 354:0 355:0 356:0 357:0 358:0 359:0 360:0 361:0 362:0 363:0 364:0 365:0 366:0.00775194 367:0 368:0 369:0 370:0 371:0 372:0 373:0 374:0 375:0 376:0 377:0 378:0 379:0 380:0 381:0 382:0 383:0 384:0 385:0 386:0 387:0 388:0 389:0 390:0 391:0 392:0 393:0 394:0.0232558 395:0.00775194 396:0 397:0 398:0 399:0 400:0 401:0 402:0 403:0 404:0 405:0 406:0 407:0 408:0 409:0 410:0 411:0.00775194 412:0 413:0 414:0.00775194 415:0 416:0.00775194 417:0 418:0 419:0 420:0 421:0 422:0 423:0 424:0 425:0 426:0 427:0 428:0 429:0 430:0 431:0 432:0 433:0 434:0 435:0 436:0 437:0 438:0.00775194 439:0 440:0 441:0 442:0 443:0 444:0.00775194 445:0 446:0 447:0 448:0 449:0 450:0 451:0 452:0 453:0 454:0 455:0 456:0 457:0 458:0.00775194 459:0 460:0 461:0 462:0 463:0 464:0 465:0 466:0 467:0 468:0.0310078 469:0 470:0 471:0 472:0 473:0 474:0 475:0 476:0 477:0 478:0 479:0.00775194 480:0 481:0 482:0 483:0 484:0 485:0 486:0 487:0 488:0 489:0 490:0 491:0 492:0 493:0 494:0 495:0.00775194 496:0 497:0 498:0.00775194 499:0 500:0 501:0 502:0 503:0 504:0 505:0 506:0.00775194 507:0 508:0.00775194 509:0 510:0 511:0 512:0 513:0 514:0 515:0 516:0 517:0 518:0 519:0 520:0 521:0.00775194 522:0.00775194 523:0 524:0 525:0 526:0 527:0 528:0 529:0 530:0 531:0 532:0.00775194 533:0 534:0 535:0 536:0 537:0 538:0 539:0 540:0 541:0 542:0 543:0 544:0.00775194 545:0 546:0 547:0 548:0 549:0.00775194 550:0 551:0 552:0 553:0 554:0 555:0 556:0 557:0 558:0 559:0 560:0 561:0.00775194 562:0 563:0 564:0 565:0 566:0.00775194 567:0 568:0.00775194 569:0 570:0 571:0 572:0 573:0 574:0 575:0 576:0 577:0 578:0 579:0 580:0 581:0 582:0 583:0.00775194 584:0 585:0 586:0 587:0 588:0 589:0 590:0 591:0.124031 592:0 593:0 594:0 595:0 596:0 597:0 598:0 599:0 600:0 601:0 602:0 603:0 604:0 605:0 606:0 607:0 608:0 609:0 610:0.00775194 611:0 612:0 613:0 614:0 615:0 616:0 617:0 618:0 619:0 620:0 621:0 622:0 623:0 624:0 625:0 626:0 627:0 628:0 629:0.00775194 630:0 631:0 632:0 633:0 634:0 635:0.0232558 636:0.00775194 637:0 638:0 639:0 640:0 641:0 642:0 643:0 644:0 645:0 646:0 647:0 648:0 649:0 650:0.0232558 651:0 652:0.0155039 653:0.00775194 654:0 655:0 656:0 657:0 658:0.00775194 659:0 660:0.0155039 661:0 662:0 663:0 664:0 665:0 666:0 667:0 668:0 669:0 670:0 671:0 672:0 673:0 674:0 675:0 676:0 677:0 678:0 679:0 680:0 681:0 682:0 683:0 684:0 685:0.00775194 686:0 687:0 688:0 689:0 690:0 691:0 692:0 693:0 694:0 695:0 696:0 697:0 698:0 699:0 700:0 701:0 702:0 703:0 704:0 705:0 706:0 707:0 708:0.0155039 709:0 710:0 711:0 712:0 713:0 714:0 715:0 716:0 717:0 718:0 719:0 720:0 721:0 722:0 723:0.00775194 724:0 725:0 726:0 727:0 728:0 729:0 730:0 731:0 732:0 733:0 734:0 735:0 736:0 737:0 738:0 739:0 740:0.00775194 741:0 742:0 743:0 744:0 745:0 746:0 747:0 748:0 749:0 750:0.00775194 751:0 752:0 753:0 754:0 755:0 756:0 757:0 758:0 759:0 760:0 761:0 762:0 763:0 764:0 765:0 766:0 767:0 768:0.00775194 769:0 770:0 771:0 772:0 773:0 774:0 775:0 776:0 777:0 778:0 779:0 780:0 781:0 782:0 783:0 784:0 785:0 786:0 787:0 788:0 789:0 790:0 791:0 792:0 793:0 794:0 795:0 796:0 797:0 798:0 799:0 800:0 801:0 802:0 803:0 804:0 805:0 806:0 807:0 808:0 809:0.00775194 810:0 811:0 812:0.00775194 813:0 814:0.0155039 815:0 816:0 817:0 818:0 819:0 820:0 821:0 822:0 823:0 824:0 825:0.00775194 826:0 827:0 828:0 829:0 830:0 831:0 832:0 833:0 834:0 835:0 836:0.0232558 837:0 838:0 839:0 840:0 841:0 842:0 843:0 844:0 845:0 846:0 847:0 848:0 849:0 850:0 851:0 852:0 853:0.0155039 854:0 855:0.00775194 856:0 857:0.00775194 858:0 859:0 860:0 861:0 862:0 863:0 864:0 865:0 866:0 867:0 868:0 869:0 870:0 871:0 872:0 873:0 874:0 875:0 876:0 877:0 878:0 879:0 880:0.00775194 881:0 882:0 883:0.00775194 884:0 885:0 886:0 887:0 888:0 889:0 890:0 891:0 892:0 893:0 894:0 895:0 896:0 897:0 898:0 899:0 900:0 901:0 902:0 903:0 904:0 905:0 906:0 907:0.00775194 908:0 909:0 910:0 911:0 912:0 913:0 914:0 915:0 916:0 917:0 918:0.00775194 919:0 920:0 921:0 922:0 923:0 924:0 925:0 926:0 927:0 928:0 929:0 930:0 931:0 932:0 933:0 934:0 935:0.00775194 936:0 937:0 938:0 939:0 940:0 941:0 942:0 943:0 944:0 945:0 946:0 947:0 948:0 949:0 950:0 951:0.00775194 952:0 953:0 954:0.00775194 955:0 956:0 957:0 958:0.00775194 959:0 960:0 961:0 962:0 963:0 964:0 965:0 966:0 967:0 968:0 969:0 970:0 971:0 972:0 973:0 974:0 975:0 976:0 977:0 978:0 979:0 980:0 981:0 982:0 983:0 984:0 985:0 986:0 987:0 988:0 989:0 990:0 991:0 992:0 993:0 994:0 995:0 996:0 997:0.0155039 998:0 999:0 1000:0 
3.002879039913329 1:0.00840336 2:0 3:0 4:0 5:0 6:0 7:0 8:0.00840336 9:0 10:0.00840336 11:0 12:0.00840336 13:0 14:0 15:0 16:0 17:0.00840336 18:0 19:0 20:0.00840336 21:0.00840336 22:0 23:0 24:0 25:0 26:0.00840336 27:0 28:0 29:0 30:0 31:0 32:0 33:0.0252101 34:0 35:0 36:0 37:0 38:0 39:0 40:0 41:0 42:0 43:0 44:0 45:0 46:0 47:0.00840336 48:0 49:0 50:0 51:0 52:0 53:0 54:0 55:0 56:0 57:0 58:0 59:0 60:0 61:0 62:0 63:0 64:0 65:0 66:0 67:0 68:0 69:0 70:0 71:0 72:0 73:0 74:0 75:0 76:0 77:0 78:0 79:0 80:0 81:0 82:0 83:0 84:0 85:0 86:0 87:0 88:0 89:0 90:0 91:0 92:0 93:0 94:0 95:0 96:0 97:0.00840336 98:0 99:0 100:0.00840336 101:0.00840336 102:0 103:0 104:0 105:0.00840336 106:0 107:0.00840336 108:0 109:0 110:0 111:0 112:0 113:0 114:0 115:0 116:0 117:0 118:0 119:0 120:0 121:0 122:0 123:0 124:0 125:0 126:0 127:0 128:0 129:0 130:0.00840336 131:0 132:0 133:0 134:0 135:0 136:0 137:0 138:0 139:0 140:0 141:0 142:0 143:0 144:0 145:0 146:0 147:0 148:0 149:0 150:0 151:0 152:0 153:0.00840336 154:0 155:0 156:0 157:0 158:0 159:0 160:0 161:0 162:0 163:0 164:0 165:0 166:0 167:0.0168067 168:0 169:0 170:0 171:0 172:0 173:0 174:0 175:0.00840336 176:0 177:0.00840336 178:0 179:0 180:0 181:0 182:0 183:0 184:0 185:0 186:0 187:0 188:0.00840336 189:0 190:0 191:0 192:0 193:0 194:0 195:0 196:0 197:0.00840336 198:0 199:0 200:0 201:0 202:0 203:0 204:0 205:0 206:0 207:0 208:0 209:0 210:0 211:0 212:0.00840336 213:0 214:0 215:0 216:0 217:0.00840336 218:0 219:0.00840336 220:0 221:0 222:0 223:0 224:0 225:0 226:0 227:0 228:0 229:0 230:0 231:0 232:0 233:0 234:0 235:0 236:0 237:0 238:0 239:0 240:0 241:0 242:0 243:0 244:0 245:0 246:0 247:0 248:0 249:0 250:0 251:0 252:0 253:0 254:0 255:0.00840336 256:0.00840336 257:0 258:0.00840336 259:0 260:0 261:0 262:0 263:0 264:0 265:0 266:0.00840336 267:0 268:0 269:0 270:0 271:0 272:0 273:0 274:0 275:0 276:0 277:0 278:0 279:0 280:0 281:0 282:0 283:0 284:0 285:0 286:0 287:0 288:0 289:0 290:0 291:0 292:0 293:0 294:0 295:0 296:0 297:0 298:0 299:0 300:0 301:0 302:0 303:0 304:0 305:0.00840336 306:0 307:0.00840336 308:0 309:0 310:0 311:0 312:0 313:0 314:0 315:0.00840336 316:0 317:0 318:0 319:0 320:0 321:0 322:0 323:0 324:0 325:0 326:0 327:0 328:0 329:0 330:0 331:0 332:0 333:0 334:0 335:0 336:0.00840336 337:0 338:0 339:0 340:0 341:0 342:0 343:0.00840336 344:0 345:0 346:0 347:0 348:0 349:0 350:0 351:0 352:0 353:0 354:0 355:0 356:0 357:0 358:0 359:0 360:0 361:0 362:0 363:0 364:0 365:0 366:0 367:0 368:0.00840336 369:0 370:0 371:0 372:0 373:0 374:0 375:0 376:0 377:0 378:0 379:0 380:0 381:0 382:0 383:0 384:0 385:0 386:0 387:0.00840336 388:0 389:0 390:0 391:0.00840336 392:0 393:0 394:0 395:0 396:0 397:0 398:0 399:0 400:0 401:0 402:0 403:0 404:0 405:0.00840336 406:0 407:0 408:0 409:0 410:0 411:0 412:0.00840336 413:0 414:0 415:0.0168067 416:0 417:0 418:0 419:0 420:0 421:0 422:0 423:0 424:0 425:0 426:0 427:0 428:0 429:0 430:0 431:0 432:0 433:0 434:0 435:0 436:0 437:0.0168067 438:0.00840336 439:0 440:0 441:0 442:0 443:0 444:0.00840336 445:0 446:0 447:0.00840336 448:0 449:0 450:0.00840336 451:0 452:0 453:0 454:0 455:0 456:0 457:0 458:0.00840336 459:0 460:0 461:0 462:0 463:0 464:0 465:0.00840336 466:0 467:0 468:0.0168067 469:0 470:0 471:0 472:0 473:0 474:0 475:0 476:0 477:0 478:0 479:0 480:0 481:0 482:0 483:0 484:0 485:0 486:0 487:0 488:0.00840336 489:0 490:0 491:0 492:0 493:0 494:0 495:0 496:0 497:0 498:0 499:0 500:0 501:0 502:0 503:0 504:0 505:0 506:0 507:0 508:0.00840336 509:0 510:0 511:0 512:0 513:0 514:0 515:0.0168067 516:0 517:0 518:0 519:0 520:0 521:0 522:0 523:0 524:0 525:0 526:0 527:0 528:0 529:0 530:0 531:0 532:0 533:0 534:0 535:0.00840336 536:0 537:0.00840336 538:0 539:0 540:0 541:0 542:0.0504202 543:0 544:0 545:0 546:0 547:0 548:0 549:0 550:0 551:0 552:0 553:0 554:0 555:0 556:0 557:0.00840336 558:0 559:0 560:0.00840336 561:0 562:0 563:0 564:0 565:0 566:0 567:0 568:0 569:0 570:0 571:0 572:0 573:0 574:0 575:0 576:0 577:0 578:0 579:0 580:0 581:0.00840336 582:0 583:0 584:0 585:0 586:0 587:0 588:0 589:0 590:0 591:0.00840336 592:0 593:0 594:0.00840336 595:0 596:0 597:0 598:0 599:0 600:0 601:0 602:0 603:0 604:0 605:0 606:0 607:0 608:0 609:0.00840336 610:0.00840336 611:0 612:0.00840336 613:0 614:0 615:0 616:0 617:0 618:0 619:0 620:0 621:0 622:0 623:0 624:0 625:0 626:0 627:0 628:0.00840336 629:0 630:0 631:0 632:0 633:0 634:0 635:0.00840336 636:0 637:0 638:0 639:0 640:0 641:0 642:0 643:0 644:0 645:0 646:0 647:0 648:0 649:0 650:0 651:0 652:0 653:0 654:0 655:0 656:0 657:0 658:0 659:0 660:0 661:0 662:0.00840336 663:0 664:0 665:0 666:0 667:0 668:0 669:0 670:0 671:0 672:0 673:0 674:0 675:0 676:0 677:0 678:0 679:0 680:0 681:0 682:0 683:0 684:0 685:0 686:0 687:0 688:0 689:0 690:0 691:0 692:0 693:0 694:0 695:0 696:0 697:0 698:0 699:0.00840336 700:0 701:0 702:0 703:0 704:0 705:0 706:0 707:0 708:0 709:0 710:0 711:0 712:0 713:0 714:0 715:0 716:0 717:0 718:0 719:0 720:0 721:0.00840336 722:0 723:0 724:0 725:0 726:0 727:0 728:0 729:0 730:0 731:0 732:0 733:0 734:0 735:0 736:0.0168067 737:0 738:0 739:0 740:0.00840336 741:0.00840336 742:0 743:0 744:0 745:0 746:0 747:0.00840336 748:0.00840336 749:0 750:0 751:0 752:0.00840336 753:0 754:0 755:0 756:0 757:0.00840336 758:0 759:0 760:0 761:0 762:0 763:0 764:0.00840336 765:0 766:0 767:0 768:0 769:0 770:0 771:0.0168067 772:0 773:0 774:0 775:0 776:0 777:0 778:0 779:0 780:0 781:0 782:0 783:0 784:0 785:0 786:0 787:0 788:0 789:0 790:0 791:0.00840336 792:0 793:0 794:0 795:0 796:0 797:0 798:0 799:0 800:0 801:0.00840336 802:0 803:0 804:0 805:0 806:0 807:0.00840336 808:0 809:0 810:0 811:0 812:0 813:0.00840336 814:0 815:0 816:0 817:0 818:0 819:0 820:0 821:0 822:0 823:0.00840336 824:0 825:0.00840336 826:0 827:0 828:0 829:0 830:0 831:0 832:0 833:0 834:0 835:0 836:0.0168067 837:0 838:0 839:0 840:0 841:0 842:0 843:0.00840336 844:0 845:0 846:0 847:0 848:0 849:0 850:0.00840336 851:0 852:0 853:0.00840336 854:0 855:0.00840336 856:0 857:0 858:0 859:0.0168067 860:0 861:0.00840336 862:0 863:0 864:0 865:0 866:0 867:0 868:0 869:0.00840336 870:0 871:0 872:0 873:0 874:0 875:0 876:0 877:0 878:0.00840336 879:0 880:0 881:0 882:0.00840336 883:0 884:0 885:0 886:0.00840336 887:0 888:0 889:0 890:0 891:0 892:0 893:0 894:0 895:0 896:0 897:0 898:0 899:0 900:0 901:0 902:0 903:0 904:0 905:0 906:0.00840336 907:0 908:0 909:0 910:0 911:0 912:0 913:0 914:0 915:0 916:0 917:0 918:0 919:0 920:0 921:0 922:0 923:0 924:0 925:0 926:0 927:0 928:0 929:0 930:0 931:0 932:0 933:0 934:0.00840336 935:0.00840336 936:0.0168067 937:0 938:0 939:0 940:0 941:0 942:0 943:0 944:0 945:0 946:0 947:0 948:0 949:0 950:0 951:0 952:0 953:0 954:0.00840336 955:0 956:0 957:0 958:0 959:0 960:0 961:0 962:0 963:0 964:0 965:0 966:0 967:0 968:0 969:0 970:0 971:0 972:0 973:0 974:0 975:0 976:0 977:0 978:0 979:0 980:0.00840336 981:0 982:0 983:0 984:0 985:0 986:0 987:0 988:0 989:0 990:0 991:0 992:0 993:0 994:0 995:0.00840336 996:0 997:0.0168067 998:0 999:0 1000:0 
4.819946977957311 1:0.0136986 2:0 3:0 4:0.0136986 5:0 6:0 7:0 8:0 9:0 10:0 11:0 12:0 13:0 14:0 15:0 16:0 17:0.0136986 18:0 19:0 20:0 21:0 22:0 23:0 24:0 25:0 26:0 27:0 28:0 29:0 30:0 31:0 32:0.0136986 33:0 34:0 35:0 36:0.0136986 37:0 38:0 39:0 40:0 41:0 42:0 43:0 44:0 45:0 46:0 47:0 48:0.0136986 49:0.0136986 50:0 51:0 52:0 53:0 54:0 55:0 56:0 57:0 58:0 59:0 60:0 61:0 62:0 63:0 64:0.0136986 65:0 66:0 67:0.0136986 68:0 69:0.0136986 70:0 71:0 72:0 73:0 74:0 75:0 76:0 77:0.0136986 78:0 79:0 80:0 81:0 82:0 83:0 84:0 85:0.0136986 86:0 87:0 88:0 89:0 90:0 91:0 92:0 93:0.0136986 94:0 95:0 96:0 97:0 98:0.0136986 99:0 100:0 101:0 102:0 103:0 104:0 105:0 106:0 107:0 108:0 109:0 110:0 111:0 112:0 113:0 114:0 115:0 116:0 117:0 118:0 119:0 120:0 121:0 122:0 123:0 124:0 125:0 126:0 127:0 128:0 129:0 130:0 131:0.0136986 132:0 133:0 134:0 135:0 136:0 137:0 138:0 139:0 140:0 141:0 142:0 143:0 144:0 145:0 146:0 147:0 148:0 149:0 150:0 151:0 152:0 153:0.0136986 154:0 155:0 156:0 157:0 158:0.0136986 159:0 160:0 161:0 162:0 163:0 164:0 165:0 166:0 167:0 168:0 169:0 170:0 171:0 172:0 173:0 174:0 175:0 176:0 177:0 178:0 179:0 180:0 181:0 182:0 183:0 184:0 185:0 186:0 187:0 188:0 189:0 190:0.0136986 191:0 192:0 193:0 194:0 195:0 196:0 197:0 198:0 199:0 200:0 201:0 202:0 203:0 204:0 205:0 206:0 207:0 208:0 209:0 210:0 211:0 212:0 213:0.0136986 214:0 215:0 216:0 217:0 218:0 219:0 220:0 221:0 222:0 223:0 224:0 225:0 226:0 227:0.0136986 228:0 229:0 230:0.0136986 231:0 232:0 233:0 234:0 235:0 236:0 237:0 238:0 239:0 240:0 241:0 242:0 243:0 244:0 245:0 246:0 247:0.0136986 248:0 249:0 250:0 251:0 252:0 253:0 254:0 255:0 256:0 257:0 258:0 259:0 260:0 261:0 262:0 263:0 264:0 265:0 266:0 267:0 268:0 269:0 270:0 271:0 272:0 273:0 274:0.0136986 275:0 276:0 277:0 278:0 279:0 280:0 281:0 282:0 283:0 284:0 285:0 286:0 287:0 288:0 289:0 290:0 291:0 292:0 293:0 294:0 295:0 296:0 297:0 298:0 299:0 300:0 301:0 302:0 303:0 304:0 305:0 306:0 307:0 308:0 309:0 310:0 311:0 312:0 313:0 314:0 315:0 316:0 317:0 318:0 319:0.0136986 320:0 321:0.0136986 322:0.0410959 323:0 324:0 325:0 326:0 327:0.0273973 328:0 329:0 330:0 331:0 332:0 333:0 334:0 335:0 336:0 337:0 338:0 339:0 340:0 341:0 342:0 343:0 344:0.0136986 345:0 346:0 347:0 348:0 349:0 350:0 351:0 352:0 353:0 354:0 355:0 356:0 357:0 358:0.0136986 359:0 360:0 361:0 362:0 363:0 364:0 365:0 366:0 367:0 368:0 369:0 370:0 371:0 372:0 373:0 374:0 375:0 376:0 377:0 378:0 379:0 380:0 381:0 382:0 383:0 384:0 385:0 386:0 387:0 388:0 389:0 390:0 391:0 392:0 393:0 394:0.0273973 395:0 396:0.0136986 397:0 398:0 399:0 400:0 401:0 402:0 403:0 404:0 405:0 406:0 407:0 408:0 409:0 410:0 411:0 412:0 413:0 414:0 415:0 416:0 417:0 418:0 419:0 420:0 421:0 422:0 423:0 424:0 425:0 426:0 427:0 428:0 429:0 430:0 431:0 432:0 433:0 434:0 435:0 436:0 437:0 438:0 439:0 440:0 441:0 442:0 443:0 444:0 445:0 446:0 447:0 448:0 449:0 450:0 451:0 452:0 453:0 454:0 455:0 456:0 457:0 458:0 459:0 460:0 461:0 462:0 463:0 464:0 465:0 466:0 467:0.0136986 468:0 469:0.0136986 470:0 471:0 472:0 473:0 474:0 475:0 476:0 477:0 478:0.0136986 479:0 480:0 481:0 482:0 483:0 484:0 485:0 486:0 487:0 488:0 489:0 490:0 491:0 492:0 493:0 494:0 495:0 496:0 497:0 498:0 499:0 500:0 501:0 502:0 503:0 504:0 505:0 506:0 507:0 508:0 509:0 510:0 511:0 512:0 513:0 514:0 515:0 516:0 517:0 518:0 519:0 520:0.0136986 521:0 522:0.0136986 523:0 524:0.0136986 525:0 526:0 527:0 528:0 529:0 530:0 531:0 532:0 533:0 534:0 535:0 536:0 537:0 538:0 539:0 540:0 541:0 542:0 543:0 544:0 545:0 546:0 547:0 548:0 549:0 550:0 551:0 552:0 553:0 554:0 555:0 556:0 557:0 558:0 559:0 560:0 561:0 562:0 563:0 564:0 565:0.0136986 566:0 567:0 568:0 569:0 570:0 571:0 572:0 573:0 574:0 575:0 576:0 577:0.0136986 578:0 579:0 580:0 581:0 582:0 583:0 584:0 585:0 586:0 587:0 588:0 589:0 590:0 591:0 592:0 593:0 594:0 595:0 596:0 597:0 598:0 599:0 600:0 601:0 602:0 603:0 604:0 605:0 606:0 607:0.0136986 608:0 609:0 610:0 611:0 612:0 613:0 614:0 615:0 616:0 617:0 618:0 619:0 620:0 621:0 622:0 623:0 624:0 625:0 626:0 627:0 628:0 629:0 630:0 631:0 632:0 633:0 634:0 635:0 636:0 637:0 638:0 639:0.0136986 640:0 641:0 642:0 643:0 644:0 645:0 646:0 647:0 648:0 649:0 650:0 651:0 652:0 653:0 654:0 655:0 656:0 657:0 658:0 659:0 660:0 661:0.0136986 662:0 663:0 664:0 665:0 666:0 667:0 668:0 669:0.0136986 670:0 671:0.0136986 672:0 673:0 674:0 675:0 676:0 677:0 678:0 679:0 680:0 681:0 682:0 683:0 684:0 685:0 686:0 687:0 688:0 689:0 690:0 691:0 692:0 693:0 694:0 695:0 696:0 697:0 698:0 699:0 700:0 701:0 702:0 703:0 704:0 705:0 706:0 707:0 708:0 709:0 710:0 711:0 712:0 713:0 714:0 715:0 716:0 717:0 718:0 719:0 720:0 721:0 722:0 723:0.0136986 724:0 725:0 726:0.0136986 727:0 728:0 729:0 730:0 731:0 732:0 733:0 734:0 735:0 736:0 737:0 738:0 739:0 740:0 741:0 742:0 743:0 744:0 745:0 746:0 747:0 748:0 749:0 750:0 751:0 752:0 753:0 754:0 755:0 756:0.0136986 757:0 758:0 759:0.0136986 760:0 761:0 762:0 763:0 764:0 765:0 766:0.0136986 767:0 768:0 769:0 770:0 771:0 772:0 773:0 774:0 775:0 776:0 777:0 778:0 779:0 780:0.0136986 781:0.0136986 782:0 783:0 784:0 785:0.0136986 786:0 787:0 788:0 789:0.0136986 790:0 791:0 792:0 793:0 794:0 795:0 796:0 797:0 798:0 799:0 800:0 801:0 802:0 803:0 804:0 805:0 806:0.0136986 807:0 808:0 809:0 810:0 811:0 812:0 813:0 814:0 815:0 816:0 817:0 818:0 819:0 820:0 821:0 822:0 823:0 824:0.0136986 825:0 826:0 827:0 828:0 829:0.0136986 830:0 831:0 832:0 833:0 834:0 835:0 836:0.0136986 837:0 838:0 839:0 840:0 841:0 842:0 843:0 844:0 845:0 846:0 847:0 848:0 849:0 850:0.0136986 851:0.0136986 852:0 853:0 854:0 855:0 856:0 857:0 858:0 859:0 860:0 861:0 862:0 863:0 864:0.0136986 865:0 866:0 867:0 868:0 869:0 870:0 871:0 872:0 873:0 874:0 875:0 876:0 877:0 878:0 879:0 880:0 881:0 882:0 883:0 884:0 885:0 886:0.0136986 887:0 888:0 889:0 890:0 891:0 892:0 893:0 894:0 895:0 896:0.0136986 897:0.0136986 898:0 899:0 900:0 901:0 902:0 903:0 904:0 905:0 906:0 907:0 908:0 909:0.0136986 910:0 911:0 912:0 913:0 914:0 915:0 916:0 917:0 918:0 919:0 920:0 921:0 922:0 923:0 924:0 925:0 926:0 927:0 928:0 929:0 930:0 931:0 932:0 933:0 934:0 935:0 936:0 937:0 938:0 939:0 940:0 941:0 942:0 943:0 944:0 945:0 946:0 947:0 948:0 949:0 950:0 951:0 952:0 953:0 954:0.0136986 955:0.0136986 956:0 957:0 958:0 959:0 960:0 961:0 962:0 963:0 964:0 965:0 966:0 967:0 968:0 969:0 970:0 971:0 972:0 973:0 974:0 975:0 976:0 977:0 978:0 979:0 980:0 981:0.0136986 982:0 983:0 984:0 985:0 986:0 987:0 988:0 989:0 990:0 991:0 992:0 993:0 994:0 995:0 996:0.0136986 997:0 998:0 999:0.0136986 1000:0 
3.841322686828009 1:0 2:0 3:0 4:0 5:0 6:0 7:0 8:0 9:0 10:0 11:0 12:0 13:0 14:0 15:0 16:0 17:0.00917431 18:0 19:0 20:0 21:0 22:0 23:0 24:0 25:0 26:0.00917431 27:0 28:0 29:0 30:0 31:0 32:0.0183486 33:0 34:0 35:0 36:0 37:0 38:0 39:0 40:0 41:0 42:0.00917431 43:0 44:0 45:0 46:0 47:0 48:0 49:0 50:0 51:0 52:0 53:0 54:0 55:0 56:0 57:0 58:0 59:0.00917431 60:0 61:0 62:0.00917431 63:0.0183486 64:0 65:0 66:0 67:0 68:0 69:0 70:0 71:0 72:0 73:0.00917431 74:0 75:0 76:0 77:0 78:0 79:0 80:0 81:0 82:0 83:0 84:0 85:0 86:0 87:0 88:0 89:0 90:0 91:0 92:0 93:0 94:0 95:0 96:0 97:0 98:0 99:0 100:0 101:0.00917431 102:0 103:0 104:0 105:0 106:0 107:0 108:0 109:0 110:0 111:0 112:0 113:0 114:0 115:0 116:0 117:0 118:0 119:0 120:0 121:0 122:0 123:0 124:0.00917431 125:0 126:0 127:0 128:0 129:0.00917431 130:0 131:0 132:0 133:0 134:0 135:0 136:0 137:0 138:0 139:0 140:0 141:0 142:0 143:0 144:0 145:0.00917431 146:0 147:0 148:0 149:0 150:0 151:0 152:0 153:0 154:0 155:0 156:0 157:0.00917431 158:0 159:0 160:0 161:0 162:0 163:0 164:0 165:0 166:0 167:0 168:0 169:0 170:0 171:0 172:0 173:0 174:0 175:0 176:0.00917431 177:0 178:0 179:0.00917431 180:0 181:0.00917431 182:0 183:0 184:0 185:0 186:0 187:0 188:0 189:0 190:0 191:0 192:0 193:0 194:0 195:0 196:0 197:0 198:0 199:0 200:0 201:0 202:0 203:0 204:0 205:0 206:0 207:0 208:0 209:0 210:0 211:0 212:0 213:0 214:0 215:0 216:0 217:0 218:0 219:0 220:0.00917431 221:0 222:0 223:0 224:0 225:0 226:0 227:0 228:0 229:0 230:0 231:0 232:0.00917431 233:0 234:0 235:0 236:0 237:0.00917431 238:0.00917431 239:0.00917431 240:0 241:0 242:0 243:0.00917431 244:0 245:0 246:0.00917431 247:0 248:0 249:0 250:0 251:0 252:0 253:0 254:0 255:0 256:0 257:0 258:0 259:0 260:0.00917431 261:0 262:0 263:0 264:0 265:0 266:0 267:0 268:0 269:0 270:0 271:0 272:0 273:0 274:0 275:0 276:0 277:0 278:0 279:0 280:0 281:0 282:0 283:0 284:0 285:0 286:0 287:0 288:0 289:0 290:0 291:0 292:0 293:0 294:0 295:0 296:0 297:0 298:0 299:0 300:0 301:0 302:0 303:0 304:0 305:0 306:0 307:0 308:0 309:0 310:0 311:0.00917431 312:0 313:0 314:0 315:0 316:0 317:0 318:0 319:0 320:0 321:0 322:0 323:0 324:0.00917431 325:0 326:0 327:0 328:0 329:0 330:0 331:0 332:0 333:0.00917431 334:0 335:0 336:0 337:0 338:0 339:0 340:0 341:0 342:0 343:0 344:0 345:0 346:0.00917431 347:0 348:0 349:0 350:0.00917431 351:0 352:0 353:0 354:0 355:0.0183486 356:0 357:0 358:0.00917431 359:0 360:0 361:0 362:0 363:0 364:0 365:0 366:0 367:0 368:0 369:0 370:0 371:0 372:0 373:0 374:0 375:0 376:0 377:0 378:0 379:0 380:0 381:0 382:0 383:0 384:0.00917431 385:0 386:0 387:0 388:0 389:0 390:0 391:0 392:0 393:0.00917431 394:0 395:0 396:0 397:0 398:0 399:0 400:0 401:0 402:0 403:0 404:0 405:0 406:0 407:0 408:0 409:0 410:0 411:0 412:0 413:0.00917431 414:0 415:0 416:0 417:0 418:0 419:0 420:0.0183486 421:0 422:0 423:0.00917431 424:0 425:0 426:0 427:0 428:0.00917431 429:0 430:0 431:0 432:0 433:0 434:0 435:0 436:0 437:0.00917431 438:0 439:0 440:0 441:0 442:0 443:0 444:0.00917431 445:0 446:0 447:0 448:0 449:0 450:0 451:0.00917431 452:0 453:0 454:0 455:0 456:0 457:0 458:0 459:0 460:0 461:0.00917431 462:0 463:0.00917431 464:0 465:0 466:0 467:0.0183486 468:0.00917431 469:0 470:0.00917431 471:0 472:0 473:0 474:0.0183486 475:0 476:0 477:0 478:0 479:0 480:0 481:0 482:0 483:0 484:0 485:0.00917431 486:0 487:0 488:0 489:0 490:0 491:0 492:0 493:0 494:0 495:0 496:0 497:0 498:0 499:0 500:0 501:0 502:0 503:0.0183486 504:0 505:0.00917431 506:0 507:0 508:0 509:0 510:0 511:0 512:0.00917431 513:0 514:0 515:0 516:0 517:0 518:0 519:0 520:0.0275229 521:0 522:0 523:0 524:0.00917431 525:0 526:0 527:0 528:0 529:0 530:0 531:0 532:0 533:0 534:0 535:0 536:0 537:0 538:0.00917431 539:0 540:0 541:0 542:0 543:0 544:0 545:0 546:0 547:0 548:0.00917431 549:0 550:0 551:0.0183486 552:0 553:0 554:0 555:0 556:0 557:0 558:0 559:0 560:0 561:0 562:0 563:0 564:0 565:0 566:0 567:0 568:0 569:0 570:0 571:0 572:0 573:0 574:0 575:0 576:0 577:0 578:0 579:0 580:0 581:0 582:0 583:0 584:0 585:0 586:0 587:0 588:0 589:0 590:0 591:0 592:0.00917431 593:0 594:0 595:0 596:0 597:0 598:0 599:0 600:0 601:0 602:0 603:0 604:0 605:0.0183486 606:0 607:0 608:0 609:0 610:0 611:0 612:0 613:0 614:0 615:0 616:0 617:0.00917431 618:0 619:0 620:0 621:0 622:0 623:0 624:0 625:0 626:0 627:0 628:0 629:0 630:0 631:0 632:0 633:0 634:0.00917431 635:0 636:0 637:0 638:0 639:0 640:0 641:0 642:0.00917431 643:0 644:0 645:0 646:0 647:0 648:0 649:0 650:0.00917431 651:0 652:0 653:0.0183486 654:0.00917431 655:0 656:0 657:0 658:0 659:0 660:0 661:0 662:0 663:0 664:0 665:0 666:0 667:0 668:0 669:0 670:0 671:0.00917431 672:0.00917431 673:0.00917431 674:0 675:0 676:0 677:0 678:0 679:0 680:0 681:0 682:0 683:0 684:0 685:0 686:0 687:0 688:0 689:0 690:0 691:0 692:0 693:0 694:0 695:0 696:0 697:0 698:0 699:0 700:0 701:0.00917431 702:0 703:0 704:0 705:0 706:0 707:0 708:0 709:0 710:0 711:0 712:0 713:0 714:0 715:0 716:0 717:0.00917431 718:0.00917431 719:0 720:0 721:0 722:0 723:0.0183486 724:0.00917431 725:0 726:0 727:0 728:0 729:0 730:0 731:0 732:0 733:0.00917431 734:0 735:0 736:0 737:0 738:0 739:0.00917431 740:0 741:0 742:0 743:0 744:0 745:0.00917431 746:0 747:0.0183486 748:0 749:0 750:0 751:0 752:0 753:0 754:0 755:0 756:0 757:0 758:0 759:0 760:0 761:0 762:0 763:0 764:0 765:0 766:0.00917431 767:0.00917431 768:0 769:0 770:0 771:0 772:0 773:0 774:0 775:0 776:0 777:0 778:0.00917431 779:0 780:0 781:0 782:0 783:0 784:0 785:0 786:0 787:0 788:0 789:0 790:0 791:0 792:0 793:0 794:0 795:0 796:0.00917431 797:0 798:0 799:0 800:0 801:0 802:0 803:0 804:0 805:0 806:0.00917431 807:0 808:0 809:0 810:0 811:0 812:0 813:0 814:0 815:0 816:0 817:0.00917431 818:0 819:0 820:0.00917431 821:0 822:0 823:0 824:0 825:0 826:0 827:0 828:0 829:0 830:0 831:0 832:0 833:0 834:0 835:0 836:0 837:0 838:0 839:0 840:0 841:0 842:0 843:0 844:0 845:0 846:0 847:0 848:0 849:0 850:0 851:0 852:0 853:0 854:0 855:0 856:0 857:0 858:0 859:0 860:0 861:0 862:0 863:0 864:0 865:0.00917431 866:0 867:0 868:0 869:0 870:0 871:0 872:0 873:0 874:0.00917431 875:0 876:0 877:0 878:0 879:0 880:0 881:0 882:0 883:0 884:0 885:0 886:0 887:0 888:0 889:0 890:0 891:0 892:0 893:0 894:0 895:0 896:0.0183486 897:0 898:0 899:0 900:0 901:0 902:0 903:0 904:0 905:0 906:0 907:0 908:0 909:0 910:0 911:0 912:0 913:0 914:0 915:0.00917431 916:0 917:0.00917431 918:0 919:0 920:0 921:0 922:0 923:0 924:0 925:0 926:0 927:0 928:0 929:0 930:0 931:0 932:0 933:0.0183486 934:0 935:0 936:0 937:0 938:0 939:0 940:0 941:0 942:0 943:0 944:0 945:0.00917431 946:0 947:0.00917431 948:0 949:0 950:0 951:0 952:0 953:0 954:0 955:0 956:0 957:0 958:0.00917431 959:0 960:0 961:0 962:0 963:0 964:0 965:0 966:0 967:0 968:0 969:0 970:0 971:0 972:0 973:0 974:0 975:0.00917431 976:0 977:0 978:0 979:0 980:0 981:0 982:0 983:0 984:0 985:0 986:0 987:0 988:0 989:0 990:0.00917431 991:0 992:0 993:0 994:0 995:0 996:0 997:0 998:0 999:0 1000:0 
1.000029557182383 1:0.00671141 2:0 3:0 4:0 5:0 6:0 7:0.00671141 8:0 9:0 10:0 11:0 12:0 13:0 14:0 15:0 16:0 17:0 18:0 19:0 20:0 21:0.00671141 22:0 23:0 24:0 25:0 26:0 27:0 28:0 29:0 30:0 31:0 32:0 33:0.00671141 34:0 35:0 36:0 37:0 38:0 39:0.00671141 40:0 41:0 42:0 43:0 44:0 45:0 46:0.00671141 47:0.0201342 48:0 49:0 50:0.0134228 51:0 52:0 53:0.0134228 54:0 55:0 56:0 57:0 58:0 59:0 60:0 61:0 62:0.00671141 63:0.00671141 64:0.0134228 65:0 66:0 67:0 68:0 69:0 70:0 71:0 72:0 73:0 74:0 75:0 76:0 77:0 78:0 79:0 80:0 81:0 82:0.00671141 83:0 84:0 85:0 86:0 87:0.00671141 88:0 89:0 90:0.00671141 91:0 92:0 93:0 94:0.0268456 95:0 96:0 97:0 98:0 99:0 100:0 101:0 102:0 103:0 104:0 105:0 106:0 107:0 108:0 109:0 110:0 111:0 112:0 113:0.00671141 114:0.00671141 115:0 116:0 117:0 118:0 119:0 120:0 121:0 122:0 123:0 124:0 125:0 126:0 127:0 128:0 129:0 130:0 131:0 132:0 133:0 134:0 135:0 136:0 137:0 138:0.00671141 139:0 140:0 141:0.00671141 142:0 143:0 144:0 145:0 146:0.00671141 147:0 148:0 149:0 150:0.00671141 151:0.0134228 152:0 153:0 154:0 155:0 156:0 157:0 158:0.00671141 159:0 160:0 161:0 162:0 163:0 164:0 165:0 166:0 167:0 168:0 169:0 170:0 171:0.00671141 172:0 173:0 174:0 175:0 176:0 177:0 178:0 179:0 180:0 181:0 182:0 183:0 184:0 185:0 186:0 187:0.00671141 188:0 189:0 190:0 191:0 192:0.00671141 193:0 194:0.00671141 195:0 196:0 197:0 198:0 199:0 200:0 201:0 202:0 203:0 204:0 205:0 206:0 207:0 208:0 209:0 210:0 211:0 212:0 213:0 214:0 215:0 216:0 217:0 218:0 219:0 220:0 221:0 222:0 223:0 224:0 225:0 226:0.00671141 227:0 228:0 229:0 230:0 231:0 232:0 233:0 234:0 235:0 236:0 237:0 238:0 239:0 240:0.00671141 241:0 242:0 243:0 244:0 245:0 246:0 247:0 248:0 249:0 250:0 251:0 252:0 253:0 254:0.00671141 255:0 256:0 257:0 258:0 259:0 260:0 261:0 262:0 263:0.00671141 264:0.00671141 265:0 266:0 267:0.00671141 268:0 269:0 270:0 271:0 272:0 273:0 274:0 275:0 276:0 277:0 278:0 279:0 280:0 281:0 282:0 283:0 284:0 285:0 286:0 287:0 288:0 289:0.00671141 290:0 291:0 292:0 293:0 294:0 295:0 296:0 297:0 298:0.00671141 299:0.00671141 300:0 301:0 302:0.00671141 303:0 304:0 305:0 306:0 307:0 308:0.00671141 309:0 310:0 311:0 312:0.00671141 313:0.00671141 314:0 315:0 316:0 317:0 318:0.00671141 319:0 320:0 321:0 322:0.0134228 323:0 324:0 325:0 326:0 327:0.00671141 328:0 329:0 330:0 331:0 332:0 333:0 334:0 335:0 336:0.00671141 337:0 338:0 339:0 340:0 341:0 342:0 343:0 344:0 345:0.00671141 346:0 347:0 348:0.00671141 349:0 350:0 351:0 352:0 353:0 354:0 355:0 356:0 357:0 358:0 359:0 360:0 361:0 362:0 363:0 364:0 365:0 366:0 367:0 368:0 369:0 370:0 371:0 372:0 373:0.00671141 374:0 375:0 376:0 377:0.00671141 378:0 379:0 380:0.0134228 381:0 382:0 383:0.00671141 384:0 385:0.00671141 386:0.00671141 387:0.00671141 388:0 389:0.00671141 390:0 391:0 392:0 393:0 394:0 395:0 396:0 397:0 398:0 399:0 400:0.00671141 401:0 402:0 403:0 404:0 405:0 406:0 407:0 408:0 409:0 410:0 411:0 412:0.00671141 413:0 414:0 415:0 416:0 417:0 418:0.00671141 419:0 420:0 421:0 422:0 423:0 424:0 425:0 426:0 427:0 428:0 429:0 430:0.00671141 431:0.0134228 432:0 433:0 434:0 435:0 436:0 437:0.00671141 438:0 439:0 440:0 441:0 442:0 443:0 444:0 445:0 446:0 447:0 448:0 449:0 450:0 451:0 452:0 453:0 454:0 455:0 456:0 457:0 458:0.00671141 459:0 460:0 461:0.00671141 462:0 463:0 464:0 465:0 466:0 467:0 468:0.00671141 469:0 470:0 471:0 472:0 473:0 474:0 475:0 476:0 477:0 478:0 479:0 480:0 481:0 482:0 483:0.00671141 484:0 485:0 486:0 487:0 488:0 489:0 490:0 491:0.00671141 492:0 493:0 494:0 495:0 496:0 497:0 498:0 499:0 500:0 501:0.00671141 502:0 503:0 504:0 505:0 506:0 507:0 508:0 509:0 510:0 511:0 512:0 513:0 514:0 515:0 516:0 517:0 518:0 519:0 520:0 521:0 522:0 523:0 524:0 525:0 526:0.00671141 527:0 528:0.00671141 529:0 530:0 531:0 532:0 533:0 534:0 535:0 536:0 537:0 538:0 539:0.00671141 540:0.00671141 541:0 542:0 543:0 544:0 545:0 546:0 547:0 548:0 549:0 550:0 551:0 552:0 553:0 554:0 555:0 556:0 557:0 558:0 559:0 560:0 561:0 562:0 563:0 564:0 565:0 566:0.00671141 567:0 568:0.00671141 569:0 570:0 571:0 572:0 573:0 574:0 575:0 576:0 577:0 578:0 579:0 580:0 581:0 582:0 583:0.00671141 584:0 585:0 586:0 587:0 588:0 589:0 590:0 591:0.00671141 592:0 593:0 594:0 595:0 596:0.00671141 597:0.00671141 598:0 599:0 600:0.0134228 601:0 602:0 603:0.00671141 604:0 605:0 606:0 607:0 608:0 609:0 610:0.00671141 611:0 612:0 613:0 614:0 615:0 616:0 617:0 618:0 619:0 620:0 621:0 622:0 623:0 624:0 625:0 626:0 627:0 628:0 629:0 630:0 631:0 632:0 633:0 634:0 635:0.00671141 636:0.0201342 637:0 638:0 639:0 640:0 641:0 642:0 643:0 644:0 645:0 646:0 647:0 648:0.00671141 649:0 650:0.0469799 651:0 652:0.0201342 653:0 654:0 655:0 656:0 657:0 658:0 659:0 660:0.00671141 661:0 662:0 663:0 664:0 665:0 666:0 667:0 668:0 669:0 670:0 671:0.00671141 672:0 673:0 674:0 675:0 676:0 677:0 678:0 679:0 680:0.00671141 681:0 682:0 683:0 684:0.00671141 685:0 686:0 687:0 688:0 689:0.00671141 690:0.00671141 691:0 692:0 693:0.00671141 694:0 695:0 696:0 697:0 698:0 699:0.00671141 700:0 701:0 702:0 703:0 704:0 705:0.00671141 706:0 707:0 708:0 709:0 710:0 711:0 712:0 713:0 714:0 715:0 716:0.00671141 717:0 718:0 719:0 720:0 721:0 722:0 723:0 724:0 725:0 726:0 727:0 728:0 729:0 730:0 731:0 732:0 733:0 734:0 735:0 736:0.00671141 737:0 738:0 739:0 740:0.00671141 741:0 742:0 743:0.00671141 744:0 745:0 746:0 747:0 748:0 749:0 750:0 751:0 752:0 753:0 754:0 755:0 756:0 757:0.00671141 758:0 759:0 760:0 761:0 762:0 763:0 764:0 765:0.00671141 766:0 767:0 768:0 769:0 770:0 771:0 772:0 773:0 774:0 775:0 776:0 777:0 778:0 779:0 780:0 781:0.0134228 782:0 783:0 784:0 785:0 786:0 787:0 788:0 789:0 790:0 791:0 792:0 793:0 794:0 795:0 796:0 797:0 798:0 799:0 800:0 801:0 802:0 803:0 804:0 805:0.00671141 806:0 807:0 808:0 809:0 810:0 811:0 812:0 813:0 814:0 815:0 816:0 817:0 818:0 819:0 820:0 821:0 822:0 823:0 824:0 825:0 826:0 827:0 828:0 829:0 830:0 831:0 832:0 833:0 834:0 835:0 836:0.00671141 837:0 838:0 839:0 840:0 841:0 842:0 843:0 844:0 845:0 846:0 847:0 848:0 849:0.00671141 850:0 851:0 852:0.00671141 853:0 854:0 855:0.00671141 856:0 857:0 858:0 859:0.00671141 860:0 861:0 862:0 863:0 864:0 865:0 866:0 867:0 868:0 869:0.00671141 870:0 871:0.00671141 872:0.00671141 873:0 874:0 875:0 876:0 877:0 878:0.00671141 879:0 880:0.00671141 881:0 882:0 883:0 884:0 885:0 886:0 887:0 888:0.0134228 889:0 890:0 891:0 892:0 893:0 894:0.00671141 895:0 896:0 897:0 898:0 899:0 900:0 901:0 902:0 903:0 904:0 905:0 906:0 907:0 908:0 909:0 910:0.00671141 911:0 912:0 913:0 914:0 915:0 916:0 917:0 918:0 919:0 920:0 921:0 922:0 923:0 924:0 925:0 926:0 927:0 928:0 929:0 930:0 931:0 932:0 933:0 934:0 935:0.00671141 936:0 937:0 938:0 939:0 940:0 941:0 942:0 943:0 944:0 945:0.00671141 946:0 947:0 948:0 949:0.0134228 950:0.00671141 951:0.00671141 952:0 953:0 954:0 955:0 956:0 957:0 958:0 959:0 960:0 961:0 962:0 963:0 964:0 965:0 966:0 967:0 968:0 969:0 970:0 971:0 972:0 973:0 974:0 975:0 976:0 977:0 978:0 979:0 980:0 981:0 982:0 983:0 984:0 985:0.00671141 986:0 987:0 988:0 989:0 990:0 991:0 992:0 993:0 994:0.00671141 995:0 996:0 997:0.00671141 998:0 999:0 1000:0 
1.060619258955041 1:0 2:0 3:0.00684932 4:0 5:0 6:0 7:0.00684932 8:0 9:0.00684932 10:0.00684932 11:0 12:0 13:0 14:0 15:0.0136986 16:0 17:0 18:0 19:0 20:0.00684932 21:0 22:0 23:0 24:0 25:0 26:0 27:0 28:0 29:0 30:0 31:0 32:0 33:0 34:0 35:0 36:0.00684932 37:0 38:0 39:0 40:0 41:0 42:0 43:0 44:0 45:0 46:0 47:0 48:0 49:0 50:0 51:0 52:0 53:0 54:0.00684932 55:0 56:0 57:0 58:0 59:0 60:0 61:0 62:0 63:0 64:0 65:0 66:0 67:0 68:0 69:0 70:0 71:0 72:0 73:0 74:0 75:0 76:0 77:0 78:0 79:0 80:0.00684932 81:0 82:0 83:0 84:0 85:0 86:0 87:0.00684932 88:0.00684932 89:0.00684932 90:0 91:0 92:0 93:0 94:0.0136986 95:0 96:0 97:0 98:0 99:0 100:0 101:0.00684932 102:0.00684932 103:0 104:0 105:0 106:0 107:0.00684932 108:0 109:0 110:0 111:0.00684932 112:0 113:0 114:0 115:0 116:0 117:0 118:0 119:0 120:0 121:0.00684932 122:0 123:0 124:0 125:0 126:0 127:0 128:0 129:0 130:0 131:0 132:0 133:0 134:0 135:0.00684932 136:0 137:0 138:0 139:0 140:0.00684932 141:0 142:0 143:0 144:0 145:0 146:0 147:0 148:0 149:0 150:0 151:0 152:0 153:0 154:0 155:0 156:0 157:0 158:0 159:0 160:0 161:0 162:0 163:0 164:0 165:0 166:0 167:0 168:0 169:0 170:0 171:0 172:0.00684932 173:0 174:0 175:0 176:0 177:0.00684932 178:0 179:0 180:0 181:0 182:0.00684932 183:0 184:0.00684932 185:0 186:0 187:0 188:0 189:0 190:0 191:0.0136986 192:0 193:0 194:0 195:0 196:0 197:0.00684932 198:0 199:0 200:0.00684932 201:0 202:0 203:0 204:0 205:0 206:0 207:0 208:0 209:0 210:0 211:0 212:0 213:0 214:0 215:0 216:0 217:0 218:0 219:0 220:0 221:0 222:0 223:0.0136986 224:0 225:0 226:0 227:0 228:0 229:0 230:0.00684932 231:0 232:0.00684932 233:0 234:0 235:0 236:0.00684932 237:0 238:0 239:0 240:0.00684932 241:0 242:0 243:0 244:0 245:0 246:0 247:0 248:0 249:0 250:0 251:0 252:0 253:0 254:0 255:0 256:0 257:0 258:0 259:0 260:0 261:0 262:0 263:0 264:0 265:0 266:0 267:0 268:0 269:0 270:0.00684932 271:0 272:0 273:0 274:0 275:0.00684932 276:0 277:0 278:0.00684932 279:0 280:0 281:0 282:0 283:0 284:0 285:0 286:0 287:0 288:0 289:0 290:0 291:0 292:0 293:0 294:0 295:0.0136986 296:0 297:0 298:0 299:0 300:0 301:0 302:0 303:0.00684932 304:0 305:0 306:0 307:0.00684932 308:0.00684932 309:0 310:0 311:0 312:0 313:0 314:0 315:0 316:0 317:0.00684932 318:0 319:0 320:0 321:0 322:0.00684932 323:0 324:0 325:0 326:0 327:0.00684932 328:0.00684932 329:0 330:0.00684932 331:0 332:0 333:0.00684932 334:0 335:0.00684932 336:0 337:0 338:0 339:0 340:0.00684932 341:0.00684932 342:0 343:0 344:0 345:0 346:0 347:0 348:0 349:0 350:0 351:0 352:0 353:0 354:0 355:0 356:0 357:0 358:0 359:0 360:0 361:0 362:0 363:0 364:0 365:0 366:0 367:0 368:0 369:0 370:0 371:0 372:0 373:0 374:0 375:0 376:0 377:0 378:0 379:0 380:0.00684932 381:0 382:0 383:0 384:0 385:0 386:0 387:0 388:0 389:0 390:0 391:0 392:0 393:0 394:0.0136986 395:0.00684932 396:0 397:0 398:0 399:0 400:0 401:0 402:0 403:0.00684932 404:0 405:0.00684932 406:0 407:0 408:0 409:0 410:0 411:0.0136986 412:0 413:0 414:0 415:0.00684932 416:0 417:0 418:0.00684932 419:0 420:0 421:0 422:0 423:0 424:0 425:0 426:0 427:0 428:0 429:0 430:0 431:0 432:0 433:0 434:0 435:0 436:0 437:0.00684932 438:0 439:0 440:0.00684932 441:0 442:0 443:0 444:0.00684932 445:0 446:0 447:0 448:0 449:0 450:0 451:0 452:0 453:0 454:0 455:0 456:0 457:0 458:0.0136986 459:0 460:0 461:0 462:0 463:0 464:0 465:0 466:0 467:0 468:0 469:0 470:0 471:0.00684932 472:0 473:0 474:0 475:0 476:0 477:0 478:0 479:0 480:0 481:0 482:0 483:0 484:0 485:0 486:0 487:0.00684932 488:0 489:0 490:0 491:0 492:0 493:0 494:0 495:0 496:0 497:0 498:0 499:0.00684932 500:0.00684932 501:0 502:0 503:0 504:0 505:0.00684932 506:0 507:0 508:0.00684932 509:0 510:0 511:0 512:0 513:0 514:0 515:0 516:0 517:0 518:0 519:0 520:0.00684932 521:0 522:0 523:0 524:0 525:0 526:0 527:0 528:0 529:0 530:0 531:0 532:0 533:0 534:0 535:0.0136986 536:0 537:0 538:0 539:0 540:0.00684932 541:0 542:0.00684932 543:0 544:0 545:0 546:0 547:0 548:0 549:0 550:0 551:0 552:0 553:0 554:0.00684932 555:0.00684932 556:0 557:0 558:0 559:0 560:0 561:0.00684932 562:0 563:0 564:0 565:0 566:0 567:0 568:0 569:0 570:0 571:0.00684932 572:0 573:0 574:0 575:0 576:0 577:0 578:0 579:0 580:0 581:0 582:0 583:0 584:0 585:0 586:0 587:0 588:0 589:0 590:0 591:0.00684932 592:0 593:0 594:0.00684932 595:0 596:0 597:0 598:0 599:0 600:0 601:0 602:0 603:0 604:0 605:0 606:0 607:0 608:0 609:0 610:0.00684932 611:0 612:0.00684932 613:0 614:0 615:0 616:0 617:0 618:0 619:0 620:0 621:0 622:0 623:0.00684932 624:0 625:0 626:0 627:0 628:0 629:0 630:0 631:0 632:0.00684932 633:0.00684932 634:0 635:0.0136986 636:0.00684932 637:0 638:0 639:0 640:0 641:0 642:0 643:0 644:0 645:0 646:0 647:0 648:0 649:0.00684932 650:0.0136986 651:0 652:0.0205479 653:0 654:0 655:0 656:0 657:0.00684932 658:0 659:0 660:0 661:0 662:0 663:0 664:0 665:0 666:0 667:0 668:0 669:0 670:0 671:0 672:0 673:0 674:0 675:0 676:0 677:0 678:0 679:0 680:0 681:0 682:0.00684932 683:0 684:0 685:0.0136986 686:0 687:0 688:0 689:0 690:0 691:0 692:0 693:0 694:0 695:0 696:0 697:0 698:0 699:0 700:0 701:0.00684932 702:0 703:0.00684932 704:0 705:0 706:0 707:0 708:0 709:0 710:0 711:0 712:0.00684932 713:0 714:0 715:0 716:0.00684932 717:0 718:0 719:0 720:0.00684932 721:0 722:0.00684932 723:0 724:0.00684932 725:0 726:0 727:0 728:0 729:0 730:0 731:0 732:0 733:0 734:0 735:0 736:0 737:0 738:0 739:0 740:0 741:0.00684932 742:0 743:0 744:0 745:0 746:0 747:0 748:0 749:0 750:0 751:0 752:0 753:0 754:0 755:0 756:0.00684932 757:0 758:0 759:0 760:0.0136986 761:0 762:0.00684932 763:0 764:0 765:0 766:0 767:0 768:0 769:0 770:0 771:0 772:0 773:0 774:0 775:0 776:0 777:0 778:0 779:0 780:0 781:0 782:0 783:0 784:0 785:0.00684932 786:0 787:0 788:0 789:0 790:0 791:0 792:0 793:0 794:0 795:0 796:0 797:0 798:0 799:0 800:0 801:0 802:0 803:0 804:0 805:0 806:0 807:0 808:0 809:0 810:0 811:0 812:0 813:0.00684932 814:0.0136986 815:0 816:0 817:0 818:0 819:0 820:0 821:0 822:0.00684932 823:0.00684932 824:0 825:0.00684932 826:0 827:0 828:0 829:0.00684932 830:0 831:0 832:0 833:0 834:0 835:0 836:0 837:0 838:0 839:0 840:0 841:0 842:0 843:0 844:0 845:0 846:0 847:0 848:0 849:0 850:0 851:0 852:0 853:0 854:0 855:0.00684932 856:0 857:0.00684932 858:0.00684932 859:0 860:0 861:0 862:0 863:0 864:0 865:0 866:0 867:0 868:0 869:0.00684932 870:0 871:0 872:0 873:0 874:0 875:0 876:0 877:0.00684932 878:0.0136986 879:0 880:0 881:0 882:0 883:0 884:0 885:0 886:0 887:0 888:0.0205479 889:0 890:0.00684932 891:0 892:0 893:0 894:0 895:0 896:0 897:0 898:0 899:0 900:0 901:0 902:0 903:0 904:0 905:0 906:0 907:0 908:0 909:0 910:0 911:0 912:0 913:0 914:0.00684932 915:0 916:0 917:0 918:0 919:0 920:0 921:0 922:0 923:0.00684932 924:0.00684932 925:0 926:0 927:0 928:0 929:0 930:0 931:0 932:0 933:0 934:0 935:0.00684932 936:0 937:0 938:0 939:0 940:0 941:0 942:0 943:0 944:0 945:0 946:0 947:0 948:0 949:0.00684932 950:0 951:0 952:0 953:0 954:0 955:0 956:0 957:0 958:0.0136986 959:0 960:0 961:0 962:0.00684932 963:0 964:0 965:0 966:0 967:0.00684932 968:0 969:0 970:0 971:0 972:0.00684932 973:0 974:0 975:0 976:0.00684932 977:0 978:0 979:0 980:0 981:0 982:0 983:0 984:0 985:0 986:0 987:0 988:0 989:0 990:0 991:0 992:0 993:0 994:0 995:0.00684932 996:0 997:0 998:0 999:0 1000:0 
2.396581394844187 1:0 2:0 3:0 4:0 5:0 6:0 7:0 8:0 9:0 10:0 11:0 12:0 13:0 14:0 15:0 16:0 17:0 18:0 19:0 20:0 21:0 22:0 23:0 24:0 25:0 26:0.0212766 27:0 28:0 29:0 30:0 31:0 32:0 33:0 34:0 35:0 36:0 37:0 38:0 39:0 40:0 41:0 42:0 43:0 44:0 45:0 46:0 47:0 48:0 49:0 50:0 51:0 52:0 53:0 54:0 55:0 56:0 57:0 58:0 59:0 60:0 61:0 62:0 63:0 64:0 65:0 66:0 67:0 68:0 69:0 70:0 71:0 72:0.0212766 73:0 74:0 75:0 76:0 77:0 78:0 79:0 80:0 81:0 82:0 83:0 84:0 85:0 86:0 87:0 88:0 89:0 90:0 91:0 92:0 93:0 94:0 95:0 96:0 97:0 98:0 99:0 100:0 101:0 102:0.0212766 103:0 104:0 105:0 106:0 107:0 108:0 109:0 110:0 111:0 112:0 113:0 114:0 115:0 116:0 117:0 118:0 119:0 120:0 121:0 122:0 123:0 124:0 125:0 126:0 127:0.0212766 128:0 129:0 130:0 131:0 132:0 133:0 134:0 135:0 136:0.0212766 137:0 138:0 139:0 140:0 141:0 142:0 143:0 144:0 145:0 146:0 147:0 148:0 149:0 150:0 151:0 152:0 153:0 154:0 155:0 156:0 157:0 158:0 159:0 160:0 161:0 162:0 163:0 164:0 165:0 166:0 167:0 168:0 169:0 170:0 171:0 172:0.0212766 173:0 174:0 175:0 176:0 177:0 178:0 179:0 180:0 181:0 182:0 183:0 184:0 185:0 186:0 187:0 188:0.0212766 189:0 190:0 191:0 192:0 193:0 194:0 195:0 196:0 197:0 198:0 199:0 200:0 201:0 202:0 203:0 204:0 205:0 206:0 207:0.0212766 208:0 209:0 210:0 211:0 212:0 213:0 214:0 215:0 216:0 217:0 218:0 219:0 220:0 221:0 222:0 223:0 224:0 225:0 226:0 227:0 228:0 229:0 230:0 231:0 232:0.0212766 233:0 234:0 235:0 236:0 237:0.0212766 238:0 239:0 240:0 241:0 242:0 243:0 244:0 245:0 246:0 247:0 248:0 249:0 250:0 251:0 252:0 253:0 254:0 255:0 256:0 257:0 258:0 259:0 260:0 261:0 262:0 263:0 264:0 265:0 266:0 267:0 268:0 269:0 270:0 271:0 272:0 273:0 274:0 275:0 276:0 277:0 278:0 279:0 280:0.0212766 281:0 282:0 283:0 284:0 285:0 286:0 287:0 288:0 289:0 290:0 291:0 292:0 293:0 294:0 295:0 296:0 297:0 298:0 299:0 300:0.0212766 301:0 302:0 303:0 304:0 305:0 306:0 307:0 308:0 309:0 310:0 311:0.0212766 312:0 313:0.0212766 314:0 315:0 316:0 317:0 318:0 319:0 320:0 321:0 322:0 323:0 324:0 325:0 326:0.0425532 327:0.0212766 328:0 329:0 330:0 331:0 332:0 333:0 334:0 335:0 336:0 337:0 338:0 339:0 340:0 341:0 342:0 343:0 344:0 345:0 346:0 347:0 348:0 349:0 350:0 351:0 352:0 353:0 354:0 355:0.0425532 356:0 357:0 358:0 359:0 360:0 361:0 362:0 363:0 364:0 365:0 366:0 367:0 368:0 369:0 370:0 371:0 372:0 373:0 374:0 375:0 376:0 377:0 378:0 379:0 380:0 381:0 382:0 383:0 384:0 385:0 386:0 387:0 388:0 389:0 390:0 391:0 392:0 393:0 394:0.0212766 395:0 396:0 397:0 398:0 399:0 400:0 401:0 402:0 403:0 404:0 405:0 406:0 407:0 408:0 409:0 410:0.0212766 411:0 412:0 413:0 414:0 415:0 416:0 417:0 418:0 419:0 420:0 421:0.0212766 422:0 423:0 424:0 425:0 426:0 427:0 428:0 429:0 430:0.0212766 431:0 432:0 433:0 434:0 435:0 436:0 437:0 438:0 439:0 440:0 441:0 442:0 443:0 444:0 445:0 446:0 447:0 448:0 449:0 450:0 451:0.0425532 452:0 453:0 454:0 455:0 456:0 457:0 458:0 459:0 460:0 461:0 462:0 463:0 464:0 465:0 466:0 467:0.0212766 468:0 469:0 470:0 471:0 472:0 473:0 474:0 475:0 476:0 477:0 478:0 479:0 480:0 481:0 482:0 483:0 484:0 485:0 486:0 487:0 488:0 489:0 490:0 491:0 492:0 493:0 494:0 495:0 496:0 497:0 498:0 499:0 500:0 501:0 502:0 503:0 504:0 505:0 506:0 507:0 508:0 509:0 510:0 511:0 512:0 513:0 514:0 515:0 516:0 517:0 518:0 519:0 520:0.0638298 521:0 522:0 523:0 524:0 525:0 526:0 527:0 528:0 529:0 530:0 531:0 532:0 533:0 534:0 535:0 536:0 537:0 538:0 539:0 540:0 541:0 542:0 543:0 544:0 545:0 546:0 547:0.0638298 548:0 549:0 550:0 551:0 552:0 553:0 554:0 555:0 556:0 557:0 558:0 559:0 560:0 561:0.0425532 562:0 563:0 564:0 565:0 566:0 567:0 568:0 569:0 570:0 571:0 572:0 573:0 574:0 575:0 576:0 577:0 578:0 579:0 580:0 581:0 582:0 583:0 584:0 585:0 586:0 587:0 588:0 589:0 590:0 591:0 592:0 593:0 594:0 595:0 596:0 597:0 598:0 599:0 600:0 601:0 602:0 603:0 604:0 605:0 606:0 607:0 608:0 609:0 610:0 611:0 612:0 613:0 614:0.0212766 615:0 616:0 617:0 618:0 619:0 620:0 621:0 622:0 623:0 624:0 625:0 626:0 627:0 628:0 629:0 630:0 631:0 632:0 633:0 634:0 635:0 636:0 637:0 638:0 639:0 640:0 641:0 642:0 643:0 644:0 645:0 646:0 647:0 648:0 649:0 650:0.0851064 651:0 652:0 653:0 654:0 655:0 656:0 657:0 658:0 659:0 660:0 661:0 662:0 663:0 664:0 665:0 666:0 667:0 668:0 669:0 670:0 671:0 672:0 673:0 674:0 675:0 676:0 677:0 678:0 679:0 680:0 681:0 682:0 683:0 684:0 685:0 686:0 687:0 688:0 689:0 690:0 691:0 692:0 693:0 694:0 695:0 696:0 697:0 698:0 699:0 700:0 701:0 702:0 703:0 704:0 705:0 706:0 707:0 708:0 709:0 710:0 711:0 712:0 713:0 714:0 715:0 716:0 717:0 718:0 719:0 720:0 721:0 722:0 723:0 724:0 725:0 726:0 727:0 728:0 729:0 730:0 731:0 732:0 733:0 734:0 735:0 736:0 737:0 738:0 739:0 740:0 741:0 742:0 743:0 744:0 745:0 746:0 747:0 748:0 749:0 750:0 751:0.0212766 752:0 753:0 754:0 755:0 756:0 757:0 758:0 759:0 760:0 761:0 762:0 763:0 764:0 765:0 766:0 767:0 768:0 769:0 770:0 771:0 772:0 773:0.0212766 774:0 775:0 776:0 777:0 778:0 779:0 780:0 781:0 782:0 783:0 784:0 785:0 786:0 787:0 788:0 789:0 790:0 791:0 792:0 793:0 794:0 795:0 796:0 797:0 798:0 799:0 800:0 801:0 802:0 803:0 804:0 805:0 806:0 807:0 808:0 809:0.0212766 810:0 811:0 812:0 813:0 814:0 815:0 816:0 817:0 818:0 819:0 820:0 821:0 822:0 823:0 824:0 825:0 826:0 827:0 828:0 829:0 830:0 831:0 832:0 833:0 834:0 835:0 836:0 837:0 838:0 839:0 840:0 841:0 842:0 843:0 844:0 845:0 846:0 847:0 848:0 849:0 850:0 851:0 852:0 853:0 854:0 855:0 856:0 857:0 858:0 859:0 860:0 861:0 862:0 863:0 864:0 865:0 866:0 867:0 868:0 869:0 870:0 871:0 872:0.0212766 873:0 874:0 875:0 876:0 877:0 878:0.0212766 879:0 880:0 881:0 882:0 883:0 884:0 885:0 886:0 887:0 888:0 889:0 890:0 891:0 892:0 893:0 894:0 895:0 896:0 897:0 898:0 899:0 900:0 901:0 902:0 903:0 904:0 905:0 906:0 907:0 908:0 909:0 910:0 911:0 912:0 913:0 914:0 915:0 916:0 917:0.0212766 918:0 919:0 920:0 921:0 922:0 923:0 924:0 925:0 926:0 927:0 928:0 929:0 930:0 931:0 932:0 933:0 934:0 935:0 936:0 937:0.0212766 938:0 939:0 940:0 941:0 942:0 943:0 944:0 945:0 946:0 947:0 948:0 949:0 950:0 951:0 952:0 953:0 954:0 955:0 956:0 957:0 958:0 959:0 960:0 961:0 962:0 963:0 964:0 965:0 966:0 967:0 968:0 969:0 970:0 971:0 972:0 973:0 974:0 975:0 976:0 977:0 978:0 979:0 980:0 981:0 982:0 983:0 984:0 985:0 986:0 987:0 988:0 989:0 990:0 991:0 992:0 993:0 994:0 995:0 996:0.0212766 997:0 998:0 999:0 1000:0 
4.308088674413691 1:0 2:0 3:0 4:0 5:0 6:0 7:0 8:0 9:0 10:0.0126582 11:0 12:0 13:0 14:0 15:0 16:0 17:0 18:0 19:0 20:0 21:0 22:0 23:0 24:0 25:0 26:0 27:0.0126582 28:0 29:0 30:0 31:0 32:0 33:0 34:0 35:0 36:0 37:0 38:0 39:0 40:0 41:0 42:0 43:0 44:0 45:0 46:0 47:0 48:0 49:0 50:0 51:0 52:0 53:0 54:0 55:0 56:0 57:0 58:0 59:0.0253165 60:0.0126582 61:0 62:0 63:0 64:0 65:0 66:0 67:0.0126582 68:0 69:0 70:0 71:0 72:0 73:0 74:0 75:0 76:0 77:0 78:0 79:0 80:0 81:0 82:0 83:0 84:0 85:0 86:0 87:0.0126582 88:0 89:0 90:0 91:0 92:0 93:0 94:0 95:0 96:0 97:0 98:0 99:0 100:0 101:0 102:0 103:0 104:0.0126582 105:0.0126582 106:0 107:0 108:0 109:0 110:0 111:0 112:0 113:0 114:0 115:0 116:0.0126582 117:0 118:0 119:0 120:0 121:0 122:0 123:0.0126582 124:0.0126582 125:0 126:0 127:0 128:0 129:0 130:0 131:0 132:0 133:0.0126582 134:0 135:0 136:0.0126582 137:0 138:0 139:0 140:0 141:0.0126582 142:0 143:0 144:0 145:0 146:0 147:0 148:0 149:0 150:0 151:0 152:0 153:0.0126582 154:0 155:0 156:0 157:0 158:0 159:0 160:0 161:0 162:0 163:0 164:0 165:0 166:0 167:0 168:0 169:0 170:0 171:0 172:0 173:0 174:0 175:0 176:0 177:0 178:0 179:0 180:0 181:0 182:0.0253165 183:0 184:0 185:0 186:0 187:0 188:0.0126582 189:0 190:0 191:0 192:0 193:0 194:0 195:0 196:0 197:0 198:0 199:0 200:0 201:0 202:0 203:0 204:0 205:0 206:0 207:0 208:0 209:0 210:0 211:0 212:0 213:0 214:0 215:0 216:0 217:0 218:0 219:0 220:0 221:0 222:0 223:0 224:0 225:0 226:0 227:0 228:0 229:0 230:0 231:0 232:0 233:0 234:0 235:0.0126582 236:0 237:0 238:0 239:0 240:0.0126582 241:0 242:0 243:0 244:0 245:0 246:0 247:0 248:0 249:0 250:0 251:0 252:0 253:0 254:0.0126582 255:0 256:0 257:0 258:0 259:0 260:0 261:0 262:0 263:0 264:0 265:0 266:0 267:0 268:0 269:0 270:0 271:0 272:0 273:0 274:0 275:0 276:0 277:0 278:0 279:0 280:0.0126582 281:0 282:0 283:0 284:0 285:0 286:0 287:0 288:0 289:0 290:0 291:0 292:0 293:0 294:0 295:0 296:0.0126582 297:0 298:0 299:0 300:0 301:0 302:0.0126582 303:0 304:0 305:0.0126582 306:0 307:0 308:0 309:0 310:0 311:0 312:0 313:0 314:0 315:0 316:0 317:0 318:0 319:0 320:0 321:0 322:0 323:0 324:0 325:0 326:0 327:0 328:0 329:0 330:0 331:0 332:0 333:0.0126582 334:0 335:0 336:0 337:0 338:0 339:0 340:0 341:0 342:0 343:0 344:0 345:0 346:0 347:0 348:0 349:0 350:0 351:0 352:0 353:0 354:0 355:0.0379747 356:0 357:0 358:0 359:0 360:0 361:0 362:0 363:0 364:0.0126582 365:0 366:0 367:0 368:0 369:0 370:0 371:0 372:0 373:0 374:0 375:0 376:0 377:0 378:0 379:0 380:0 381:0 382:0 383:0 384:0 385:0 386:0 387:0 388:0 389:0 390:0 391:0 392:0 393:0 394:0 395:0 396:0 397:0 398:0 399:0 400:0 401:0.0126582 402:0 403:0 404:0 405:0 406:0 407:0 408:0 409:0 410:0 411:0 412:0 413:0 414:0 415:0.0253165 416:0 417:0 418:0 419:0 420:0 421:0 422:0 423:0.0126582 424:0 425:0 426:0 427:0 428:0 429:0 430:0 431:0 432:0 433:0 434:0 435:0 436:0 437:0 438:0 439:0 440:0 441:0 442:0 443:0 444:0 445:0 446:0 447:0 448:0 449:0.0126582 450:0 451:0.0126582 452:0 453:0 454:0 455:0 456:0 457:0 458:0 459:0 460:0 461:0 462:0 463:0 464:0 465:0 466:0 467:0 468:0.0126582 469:0 470:0 471:0 472:0 473:0 474:0 475:0 476:0 477:0 478:0 479:0 480:0 481:0 482:0 483:0 484:0 485:0 486:0 487:0 488:0 489:0 490:0 491:0 492:0 493:0 494:0 495:0 496:0 497:0 498:0 499:0 500:0 501:0 502:0 503:0 504:0 505:0.0253165 506:0 507:0 508:0 509:0 510:0 511:0 512:0 513:0 514:0 515:0 516:0 517:0 518:0 519:0 520:0 521:0.0126582 522:0 523:0 524:0.0126582 525:0 526:0 527:0 528:0 529:0 530:0 531:0 532:0 533:0.0126582 534:0 535:0 536:0 537:0 538:0 539:0 540:0 541:0.0126582 542:0.0126582 543:0 544:0 545:0 546:0 547:0 548:0 549:0.0126582 550:0 551:0 552:0 553:0 554:0 555:0 556:0 557:0 558:0 559:0 560:0 561:0 562:0 563:0 564:0 565:0 566:0 567:0 568:0 569:0 570:0 571:0 572:0 573:0 574:0 575:0 576:0 577:0 578:0 579:0 580:0 581:0 582:0 583:0 584:0 585:0 586:0 587:0 588:0 589:0 590:0 591:0.0126582 592:0 593:0 594:0 595:0 596:0 597:0 598:0 599:0 600:0 601:0 602:0 603:0 604:0 605:0 606:0 607:0 608:0 609:0 610:0 611:0 612:0.0126582 613:0 614:0 615:0 616:0 617:0 618:0 619:0 620:0 621:0 622:0 623:0 624:0 625:0 626:0 627:0 628:0 629:0 630:0 631:0 632:0 633:0.0126582 634:0 635:0 636:0 637:0 638:0 639:0 640:0 641:0.0126582 642:0 643:0 644:0 645:0 646:0 647:0 648:0 649:0 650:0 651:0 652:0 653:0 654:0 655:0 656:0.0126582 657:0 658:0 659:0.0126582 660:0.0126582 661:0 662:0 663:0 664:0 665:0 666:0 667:0 668:0 669:0 670:0.0126582 671:0 672:0 673:0.0126582 674:0 675:0 676:0 677:0 678:0 679:0 680:0 681:0 682:0.0126582 683:0 684:0 685:0 686:0 687:0 688:0 689:0 690:0 691:0 692:0 693:0 694:0 695:0 696:0 697:0 698:0 699:0 700:0 701:0 702:0 703:0 704:0.0126582 705:0 706:0 707:0 708:0 709:0.0126582 710:0 711:0 712:0 713:0 714:0 715:0 716:0 717:0.0126582 718:0 719:0 720:0 721:0 722:0 723:0 724:0.0126582 725:0 726:0 727:0 728:0.0126582 729:0 730:0 731:0 732:0 733:0 734:0 735:0.0126582 736:0 737:0 738:0 739:0 740:0 741:0 742:0 743:0 744:0 745:0 746:0 747:0 748:0 749:0 750:0 751:0.0126582 752:0 753:0 754:0 755:0 756:0 757:0 758:0 759:0 760:0 761:0.0126582 762:0 763:0 764:0 765:0.0126582 766:0.0126582 767:0.0126582 768:0 769:0 770:0 771:0 772:0 773:0 774:0 775:0 776:0 777:0 778:0 779:0 780:0 781:0 782:0 783:0 784:0 785:0 786:0 787:0 788:0.0126582 789:0 790:0 791:0 792:0 793:0 794:0.0126582 795:0 796:0 797:0 798:0 799:0 800:0 801:0 802:0 803:0 804:0 805:0 806:0 807:0 808:0 809:0.0253165 810:0 811:0 812:0 813:0 814:0 815:0 816:0 817:0 818:0.0126582 819:0 820:0 821:0 822:0 823:0 824:0 825:0 826:0 827:0 828:0 829:0 830:0 831:0 832:0 833:0.0126582 834:0 835:0 836:0 837:0 838:0 839:0 840:0 841:0 842:0 843:0 844:0 845:0 846:0.0126582 847:0 848:0 849:0 850:0 851:0 852:0 853:0 854:0 855:0 856:0 857:0 858:0 859:0 860:0 861:0 862:0 863:0 864:0 865:0 866:0 867:0 868:0 869:0 870:0 871:0 872:0 873:0 874:0 875:0 876:0 877:0 878:0 879:0 880:0 881:0 882:0 883:0 884:0 885:0 886:0 887:0 888:0 889:0.0126582 890:0 891:0 892:0 893:0 894:0 895:0 896:0.0126582 897:0 898:0 899:0 900:0 901:0 902:0 903:0 904:0 905:0 906:0 907:0 908:0 909:0 910:0 911:0.0126582 912:0 913:0 914:0 915:0 916:0 917:0 918:0 919:0 920:0 921:0 922:0 923:0 924:0 925:0 926:0 927:0 928:0 929:0 930:0 931:0 932:0 933:0 934:0 935:0.0126582 936:0 937:0 938:0 939:0 940:0 941:0 942:0 943:0 944:0 945:0 946:0 947:0.0126582 948:0 949:0 950:0 951:0 952:0 953:0 954:0 955:0 956:0 957:0 958:0 959:0 960:0 961:0 962:0 963:0 964:0 965:0 966:0 967:0 968:0 969:0 970:0 971:0 972:0 973:0 974:0 975:0 976:0 977:0 978:0 979:0 980:0 981:0 982:0 983:0 984:0 985:0 986:0 987:0 988:0 989:0 990:0 991:0 992:0 993:0 994:0 995:0 996:0 997:0 998:0 999:0 1000:0 
0.3294796280523592 1:0 2:0 3:0 4:0 5:0 6:0 7:0 8:0 9:0 10:0 11:0 12:0 13:0 14:0 15:0 16:0 17:0 18:0 19:0 20:0 21:0 22:0.0277778 23:0 24:0 25:0 26:0 27:0 28:0 29:0 30:0 31:0 32:0 33:0 34:0 35:0 36:0 37:0 38:0 39:0 40:0.0277778 41:0 42:0 43:0 44:0 45:0 46:0 47:0 48:0 49:0 50:0 51:0 52:0 53:0 54:0 55:0 56:0 57:0 58:0 59:0 60:0 61:0 62:0 63:0 64:0 65:0 66:0 67:0 68:0 69:0 70:0 71:0 72:0 73:0 74:0 75:0 76:0 77:0 78:0 79:0 80:0 81:0 82:0 83:0 84:0 85:0 86:0 87:0 88:0 89:0 90:0 91:0 92:0 93:0 94:0 95:0 96:0 97:0 98:0 99:0 100:0 101:0 102:0 103:0 104:0 105:0 106:0 107:0 108:0 109:0 110:0 111:0 112:0 113:0 114:0 115:0 116:0 117:0 118:0 119:0 120:0 121:0 122:0 123:0 124:0 125:0 126:0 127:0.0277778 128:0 129:0 130:0 131:0 132:0 133:0 134:0 135:0 136:0.0277778 137:0 138:0 139:0 140:0 141:0 142:0 143:0.0277778 144:0 145:0 146:0 147:0 148:0 149:0 150:0 151:0 152:0 153:0 154:0 155:0 156:0 157:0 158:0 159:0 160:0 161:0 162:0 163:0 164:0 165:0 166:0 167:0 168:0 169:0 170:0 171:0 172:0 173:0 174:0 175:0 176:0 177:0 178:0 179:0 180:0 181:0 182:0 183:0 184:0 185:0 186:0 187:0 188:0 189:0 190:0 191:0 192:0 193:0 194:0 195:0 196:0 197:0 198:0 199:0 200:0.0277778 201:0 202:0 203:0 204:0 205:0 206:0 207:0 208:0 209:0 210:0 211:0 212:0 213:0 214:0.0277778 215:0 216:0 217:0 218:0 219:0 220:0 221:0 222:0 223:0 224:0 225:0 226:0 227:0 228:0 229:0 230:0 231:0 232:0 233:0 234:0 235:0 236:0 237:0.0277778 238:0 239:0 240:0 241:0 242:0 243:0 244:0 245:0 246:0 247:0 248:0 249:0 250:0 251:0 252:0 253:0 254:0 255:0 256:0 257:0 258:0 259:0 260:0 261:0 262:0 263:0 264:0 265:0 266:0 267:0 268:0 269:0 270:0 271:0 272:0 273:0 274:0 275:0 276:0 277:0 278:0 279:0 280:0.0277778 281:0 282:0 283:0 284:0 285:0 286:0 287:0 288:0 289:0 290:0 291:0 292:0 293:0 294:0 295:0 296:0 297:0 298:0 299:0 300:0 301:0 302:0 303:0 304:0 305:0 306:0 307:0 308:0 309:0 310:0 311:0 312:0 313:0 314:0 315:0 316:0 317:0 318:0 319:0.0555556 320:0 321:0 322:0 323:0 324:0 325:0 326:0 327:0 328:0 329:0 330:0 331:0 332:0 333:0.0277778 334:0 335:0 336:0 337:0 338:0 339:0 340:0.0277778 341:0 342:0 343:0 344:0 345:0 346:0 347:0 348:0 349:0 350:0 351:0 352:0 353:0 354:0 355:0 356:0 357:0 358:0.0555556 359:0 360:0 361:0 362:0 363:0 364:0 365:0 366:0 367:0 368:0 369:0 370:0 371:0 372:0 373:0 374:0 375:0 376:0 377:0 378:0 379:0 380:0 381:0 382:0 383:0 384:0 385:0 386:0.0277778 387:0 388:0 389:0 390:0 391:0 392:0 393:0 394:0 395:0 396:0 397:0 398:0 399:0 400:0 401:0 402:0 403:0 404:0 405:0 406:0 407:0 408:0 409:0 410:0 411:0 412:0 413:0 414:0 415:0 416:0 417:0 418:0 419:0 420:0 421:0 422:0 423:0 424:0 425:0 426:0 427:0 428:0 429:0 430:0 431:0 432:0 433:0 434:0 435:0 436:0 437:0 438:0 439:0 440:0 441:0 442:0 443:0 444:0 445:0 446:0 447:0 448:0 449:0 450:0 451:0 452:0 453:0 454:0 455:0 456:0 457:0 458:0 459:0 460:0 461:0.0277778 462:0 463:0 464:0 465:0 466:0 467:0 468:0 469:0 470:0 471:0 472:0 473:0 474:0 475:0 476:0 477:0 478:0 479:0 480:0 481:0 482:0 483:0 484:0 485:0.0277778 486:0 487:0 488:0 489:0 490:0 491:0 492:0 493:0 494:0 495:0 496:0 497:0 498:0 499:0 500:0 501:0 502:0 503:0 504:0 505:0 506:0 507:0 508:0 509:0 510:0 511:0 512:0 513:0 514:0.0277778 515:0 516:0 517:0 518:0 519:0 520:0 521:0 522:0 523:0 524:0 525:0.0277778 526:0 527:0 528:0 529:0 530:0 531:0 532:0 533:0 534:0 535:0 536:0 537:0 538:0 539:0 540:0 541:0 542:0 543:0 544:0 545:0 546:0 547:0 548:0 549:0 550:0 551:0 552:0 553:0 554:0 555:0 556:0 557:0 558:0 559:0 560:0 561:0 562:0 563:0 564:0 565:0 566:0 567:0 568:0 569:0 570:0 571:0 572:0 573:0 574:0 575:0 576:0 577:0 578:0 579:0.0277778 580:0 581:0 582:0 583:0 584:0 585:0 586:0 587:0 588:0 589:0 590:0 591:0 592:0 593:0 594:0 595:0 596:0 597:0 598:0 599:0 600:0 601:0 602:0 603:0 604:0 605:0 606:0 607:0 608:0 609:0 610:0 611:0 612:0 613:0 614:0 615:0 616:0 617:0 618:0 619:0 620:0 621:0 622:0 623:0.0277778 624:0 625:0 626:0 627:0 628:0 629:0 630:0 631:0 632:0 633:0 634:0 635:0 636:0 637:0 638:0 639:0 640:0 641:0 642:0 643:0 644:0 645:0 646:0 647:0 648:0 649:0 650:0 651:0 652:0 653:0 654:0 655:0 656:0 657:0 658:0 659:0 660:0 661:0 662:0 663:0 664:0 665:0 666:0 667:0 668:0 669:0 670:0 671:0 672:0 673:0 674:0 675:0 676:0 677:0 678:0 679:0 680:0 681:0 682:0 683:0 684:0 685:0 686:0 687:0 688:0 689:0 690:0 691:0 692:0 693:0 694:0 695:0 696:0 697:0 698:0 699:0 700:0 701:0 702:0 703:0 704:0 705:0 706:0 707:0 708:0 709:0 710:0 711:0 712:0 713:0 714:0 715:0 716:0 717:0 718:0 719:0 720:0 721:0 722:0 723:0 724:0 725:0 726:0 727:0 728:0 729:0 730:0.0277778 731:0 732:0 733:0 734:0 735:0 736:0 737:0 738:0 739:0.0555556 740:0 741:0 742:0 743:0 744:0 745:0 746:0 747:0 748:0 749:0 750:0 751:0 752:0 753:0 754:0 755:0 756:0 757:0 758:0 759:0 760:0 761:0 762:0 763:0 764:0.0277778 765:0 766:0 767:0 768:0 769:0 770:0 771:0 772:0.0277778 773:0 774:0 775:0 776:0 777:0 778:0 779:0 780:0.0277778 781:0 782:0 783:0 784:0 785:0 786:0 787:0 788:0 789:0 790:0 791:0 792:0 793:0 794:0 795:0 796:0 797:0 798:0 799:0 800:0 801:0 802:0 803:0 804:0 805:0 806:0.0277778 807:0 808:0 809:0 810:0 811:0 812:0 813:0 814:0 815:0 816:0 817:0 818:0 819:0 820:0 821:0 822:0 823:0 824:0 825:0 826:0 827:0 828:0 829:0 830:0 831:0 832:0 833:0.0277778 834:0 835:0 836:0 837:0 838:0 839:0 840:0 841:0 842:0 843:0 844:0 845:0 846:0 847:0 848:0 849:0 850:0 851:0 852:0 853:0 854:0 855:0 856:0 857:0 858:0 859:0 860:0 861:0.0277778 862:0 863:0 864:0.0277778 865:0 866:0 867:0 868:0 869:0 870:0 871:0 872:0 873:0 874:0 875:0 876:0 877:0 878:0 879:0 880:0 881:0 882:0 883:0 884:0 885:0 886:0 887:0 888:0 889:0 890:0 891:0 892:0 893:0 894:0 895:0 896:0 897:0 898:0 899:0 900:0 901:0.0277778 902:0 903:0 904:0 905:0 906:0 907:0 908:0 909:0 910:0 911:0 912:0.0277778 913:0 914:0 915:0 916:0 917:0 918:0 919:0 920:0 921:0 922:0 923:0 924:0 925:0 926:0 927:0 928:0 929:0 930:0 931:0 932:0 933:0 934:0 935:0 936:0 937:0 938:0 939:0 940:0 941:0 942:0 943:0 944:0 945:0.0277778 946:0 947:0 948:0 949:0 950:0 951:0 952:0 953:0 954:0 955:0 956:0 957:0 958:0 959:0 960:0 961:0 962:0 963:0 964:0 965:0 966:0 967:0 968:0 969:0 970:0 971:0 972:0 973:0 974:0 975:0 976:0 977:0 978:0 979:0 980:0 981:0 982:0 983:0 984:0 985:0 986:0 987:0 988:0 989:0 990:0 991:0 992:0 993:0 994:0 995:0 996:0 997:0 998:0 999:0.0277778 1000:0 
1.377305244226906 1:0 2:0 3:0 4:0 5:0 6:0 7:0 8:0 9:0 10:0 11:0 12:0 13:0 14:0 15:0 16:0 17:0.0133333 18:0 19:0 20:0 21:0 22:0.0266667 23:0 24:0 25:0 26:0 27:0 28:0 29:0 30:0 31:0 32:0 33:0 34:0 35:0 36:0.0133333 37:0 38:0 39:0 40:0 41:0 42:0 43:0 44:0 45:0 46:0 47:0 48:0 49:0 50:0 51:0 52:0 53:0 54:0 55:0 56:0 57:0 58:0 59:0 60:0 61:0 62:0 63:0 64:0 65:0 66:0.0133333 67:0 68:0 69:0 70:0 71:0 72:0 73:0 74:0 75:0 76:0 77:0 78:0 79:0 80:0 81:0 82:0 83:0 84:0 85:0 86:0 87:0 88:0 89:0 90:0 91:0.0133333 92:0 93:0 94:0 95:0 96:0 97:0 98:0.0133333 99:0 100:0 101:0.0133333 102:0 103:0 104:0 105:0.0133333 106:0 107:0 108:0 109:0 110:0 111:0 112:0 113:0 114:0 115:0 116:0 117:0 118:0 119:0 120:0.0133333 121:0 122:0 123:0.0133333 124:0 125:0 126:0 127:0 128:0 129:0 130:0.0133333 131:0 132:0 133:0 134:0 135:0.0133333 136:0 137:0 138:0 139:0 140:0 141:0 142:0 143:0 144:0 145:0 146:0.0133333 147:0 148:0 149:0 150:0 151:0 152:0 153:0 154:0 155:0 156:0 157:0 158:0 159:0 160:0 161:0 162:0 163:0 164:0 165:0 166:0 167:0 168:0 169:0 170:0 171:0 172:0 173:0 174:0 175:0 176:0 177:0 178:0 179:0 180:0 181:0 182:0 183:0 184:0 185:0 186:0 187:0 188:0 189:0 190:0 191:0 192:0 193:0 194:0 195:0 196:0 197:0 198:0 199:0 200:0 201:0 202:0 203:0 204:0 205:0 206:0 207:0.0133333 208:0 209:0 210:0 211:0 212:0 213:0 214:0 215:0 216:0 217:0 218:0 219:0 220:0 221:0 222:0 223:0 224:0 225:0 226:0 227:0 228:0 229:0 230:0 231:0 232:0 233:0 234:0 235:0 236:0 237:0 238:0 239:0 240:0 241:0 242:0 243:0 244:0 245:0 246:0 247:0 248:0 249:0.0133333 250:0 251:0 252:0 253:0 254:0 255:0 256:0 257:0 258:0 259:0 260:0 261:0 262:0 263:0 264:0 265:0 266:0 267:0 268:0 269:0 270:0 271:0 272:0 273:0 274:0 275:0 276:0 277:0 278:0 279:0 280:0 281:0 282:0 283:0 284:0 285:0 286:0 287:0 288:0 289:0 290:0 291:0 292:0 293:0 294:0 295:0 296:0 297:0 298:0 299:0.0133333 300:0 301:0 302:0 303:0 304:0 305:0 306:0 307:0 308:0.0133333 309:0 310:0 311:0 312:0.0133333 313:0 314:0 315:0 316:0 317:0 318:0 319:0.0133333 320:0 321:0 322:0 323:0 324:0 325:0 326:0 327:0 328:0 329:0 330:0.0266667 331:0 332:0 333:0 334:0 335:0.0133333 336:0 337:0 338:0 339:0 340:0.0133333 341:0 342:0 343:0 344:0 345:0 346:0 347:0 348:0 349:0 350:0 351:0 352:0 353:0 354:0 355:0 356:0 357:0 358:0 359:0 360:0 361:0 362:0 363:0 364:0 365:0 366:0 367:0 368:0 369:0 370:0 371:0 372:0 373:0.0133333 374:0 375:0 376:0 377:0 378:0 379:0.0133333 380:0 381:0.0133333 382:0 383:0 384:0 385:0 386:0 387:0 388:0 389:0 390:0 391:0 392:0.0133333 393:0 394:0 395:0 396:0 397:0 398:0 399:0 400:0 401:0 402:0 403:0 404:0 405:0 406:0 407:0 408:0 409:0 410:0 411:0 412:0 413:0 414:0 415:0.0133333 416:0 417:0 418:0 419:0 420:0 421:0 422:0 423:0 424:0 425:0 426:0 427:0 428:0 429:0 430:0 431:0 432:0 433:0 434:0 435:0 436:0 437:0 438:0 439:0 440:0 441:0 442:0 443:0 444:0.0133333 445:0 446:0 447:0 448:0 449:0 450:0 451:0 452:0 453:0 454:0 455:0.0133333 456:0 457:0 458:0 459:0 460:0 461:0 462:0 463:0 464:0 465:0 466:0 467:0 468:0 469:0 470:0.0133333 471:0 472:0.0133333 473:0 474:0 475:0 476:0 477:0 478:0 479:0 480:0 481:0 482:0 483:0 484:0 485:0 486:0 487:0 488:0 489:0.0133333 490:0 491:0 492:0 493:0 494:0 495:0 496:0 497:0 498:0 499:0.0133333 500:0 501:0.0133333 502:0 503:0 504:0 505:0.0133333 506:0 507:0 508:0 509:0 510:0 511:0 512:0 513:0 514:0.04 515:0.0133333 516:0 517:0 518:0 519:0 520:0.0266667 521:0 522:0 523:0 524:0 525:0 526:0 527:0 528:0 529:0 530:0 531:0 532:0 533:0 534:0 535:0 536:0 537:0 538:0 539:0 540:0 541:0 542:0 543:0 544:0 545:0 546:0 547:0 548:0 549:0 550:0 551:0 552:0 553:0.0133333 554:0 555:0 556:0 557:0 558:0 559:0 560:0 561:0 562:0 563:0 564:0 565:0 566:0 567:0 568:0 569:0 570:0 571:0 572:0 573:0 574:0 575:0 576:0 577:0 578:0 579:0 580:0 581:0 582:0 583:0 584:0 585:0.0266667 586:0 587:0 588:0 589:0 590:0 591:0 592:0 593:0 594:0 595:0 596:0 597:0 598:0 599:0 600:0 601:0 602:0 603:0.0133333 604:0 605:0 606:0 607:0 608:0 609:0 610:0 611:0 612:0.0133333 613:0 614:0 615:0 616:0 617:0 618:0 619:0 620:0 621:0 622:0 623:0 624:0 625:0 626:0 627:0 628:0 629:0.0133333 630:0 631:0 632:0 633:0 634:0.0133333 635:0 636:0 637:0.0133333 638:0.0133333 639:0 640:0 641:0 642:0 643:0 644:0 645:0 646:0 647:0 648:0 649:0 650:0 651:0 652:0 653:0 654:0 655:0 656:0 657:0 658:0 659:0 660:0 661:0 662:0 663:0 664:0 665:0 666:0 667:0 668:0 669:0 670:0 671:0 672:0 673:0 674:0 675:0 676:0 677:0 678:0 679:0 680:0 681:0 682:0 683:0 684:0 685:0 686:0 687:0 688:0 689:0 690:0 691:0 692:0 693:0 694:0 695:0 696:0 697:0 698:0 699:0.0133333 700:0 701:0 702:0 703:0 704:0 705:0 706:0 707:0 708:0 709:0 710:0 711:0 712:0 713:0 714:0 715:0.0133333 716:0 717:0 718:0 719:0 720:0 721:0 722:0 723:0 724:0 725:0 726:0 727:0 728:0 729:0 730:0.0133333 731:0 732:0 733:0 734:0 735:0 736:0 737:0.0133333 738:0 739:0 740:0 741:0 742:0 743:0 744:0 745:0 746:0 747:0 748:0 749:0 750:0 751:0 752:0 753:0 754:0 755:0 756:0 757:0.0133333 758:0 759:0 760:0 761:0 762:0 763:0 764:0 765:0 766:0 767:0 768:0 769:0 770:0 771:0 772:0 773:0.0133333 774:0 775:0 776:0 777:0 778:0 779:0 780:0 781:0 782:0 783:0 784:0 785:0 786:0 787:0 788:0 789:0 790:0 791:0 792:0 793:0 794:0 795:0 796:0 797:0.0133333 798:0 799:0 800:0 801:0.0133333 802:0 803:0 804:0 805:0 806:0.0133333 807:0.0133333 808:0 809:0 810:0 811:0 812:0 813:0 814:0 815:0 816:0 817:0 818:0.0133333 819:0 820:0.0133333 821:0 822:0 823:0 824:0 825:0 826:0 827:0 828:0 829:0.0133333 830:0 831:0 832:0 833:0 834:0 835:0 836:0 837:0.0133333 838:0 839:0 840:0 841:0 842:0 843:0 844:0 845:0 846:0 847:0 848:0.0133333 849:0 850:0.0133333 851:0 852:0 853:0 854:0 855:0 856:0 857:0 858:0 859:0 860:0 861:0 862:0 863:0 864:0 865:0 866:0.0133333 867:0 868:0 869:0 870:0 871:0 872:0 873:0 874:0 875:0 876:0 877:0 878:0.0133333 879:0 880:0 881:0 882:0 883:0 884:0 885:0 886:0 887:0 888:0 889:0 890:0 891:0 892:0 893:0 894:0 895:0 896:0.0133333 897:0 898:0 899:0.0133333 900:0 901:0 902:0 903:0 904:0 905:0 906:0 907:0 908:0 909:0 910:0 911:0 912:0 913:0 914:0 915:0 916:0 917:0 918:0 919:0 920:0 921:0 922:0 923:0 924:0 925:0 926:0 927:0 928:0 929:0 930:0 931:0 932:0 933:0 934:0 935:0.0133333 936:0 937:0 938:0 939:0 940:0 941:0 942:0 943:0 944:0 945:0 946:0 947:0.0133333 948:0 949:0 950:0 951:0 952:0 953:0 954:0 955:0 956:0 957:0 958:0 959:0 960:0 961:0 962:0 963:0.0133333 964:0 965:0 966:0 967:0 968:0 969:0 970:0 971:0 972:0 973:0 974:0 975:0 976:0 977:0 978:0 979:0 980:0 981:0 982:0 983:0 984:0 985:0 986:0 987:0 988:0 989:0 990:0 991:0 992:0 993:0 994:0 995:0 996:0 997:0 998:0 999:0 1000:0 
2.611932922526773 1:0 2:0 3:0.00543478 4:0.00543478 5:0.00543478 6:0 7:0.00543478 8:0 9:0 10:0 11:0 12:0 13:0 14:0 15:0 16:0 17:0 18:0 19:0 20:0.0108696 21:0 22:0 23:0 24:0 25:0 26:0.00543478 27:0 28:0 29:0 30:0 31:0.00543478 32:0 33:0 34:0 35:0 36:0 37:0.00543478 38:0 39:0 40:0.00543478 41:0 42:0 43:0 44:0 45:0 46:0.00543478 47:0.00543478 48:0 49:0.00543478 50:0 51:0 52:0 53:0 54:0 55:0.00543478 56:0 57:0 58:0.00543478 59:0.0108696 60:0 61:0 62:0 63:0 64:0.00543478 65:0 66:0 67:0.00543478 68:0 69:0.00543478 70:0 71:0 72:0 73:0 74:0 75:0 76:0 77:0 78:0 79:0 80:0 81:0 82:0.00543478 83:0 84:0 85:0 86:0 87:0 88:0 89:0 90:0 91:0.00543478 92:0 93:0 94:0.0108696 95:0 96:0 97:0.00543478 98:0 99:0 100:0 101:0 102:0.00543478 103:0 104:0 105:0 106:0 107:0 108:0.0108696 109:0.00543478 110:0.0108696 111:0 112:0 113:0 114:0 115:0 116:0 117:0 118:0 119:0.00543478 120:0 121:0 122:0.00543478 123:0 124:0 125:0.00543478 126:0 127:0 128:0.00543478 129:0.00543478 130:0 131:0 132:0 133:0 134:0 135:0 136:0.00543478 137:0 138:0 139:0 140:0 141:0 142:0 143:0 144:0 145:0 146:0 147:0 148:0 149:0 150:0 151:0 152:0.00543478 153:0 154:0 155:0 156:0.00543478 157:0 158:0 159:0.00543478 160:0 161:0 162:0 163:0.00543478 164:0 165:0 166:0 167:0 168:0 169:0 170:0 171:0.00543478 172:0.00543478 173:0 174:0 175:0 176:0.00543478 177:0 178:0 179:0 180:0 181:0 182:0 183:0.00543478 184:0 185:0 186:0 187:0 188:0.00543478 189:0 190:0 191:0.00543478 192:0 193:0 194:0 195:0 196:0 197:0 198:0.00543478 199:0 200:0 201:0 202:0 203:0 204:0 205:0 206:0 207:0 208:0.00543478 209:0 210:0 211:0 212:0 213:0 214:0 215:0 216:0.00543478 217:0 218:0 219:0 220:0 221:0 222:0 223:0 224:0 225:0 226:0 227:0 228:0 229:0.00543478 230:0 231:0 232:0.00543478 233:0 234:0 235:0 236:0 237:0 238:0 239:0 240:0 241:0 242:0 243:0 244:0 245:0 246:0 247:0.00543478 248:0 249:0 250:0.00543478 251:0 252:0 253:0.00543478 254:0 255:0 256:0 257:0 258:0 259:0 260:0 261:0 262:0 263:0 264:0 265:0 266:0 267:0 268:0.00543478 269:0 270:0 271:0 272:0 273:0 274:0 275:0 276:0 277:0 278:0.00543478 279:0 280:0 281:0 282:0 283:0 284:0 285:0 286:0 287:0 288:0 289:0.00543478 290:0 291:0 292:0 293:0 294:0 295:0 296:0 297:0 298:0 299:0 300:0 301:0.00543478 302:0 303:0 304:0 305:0 306:0 307:0 308:0 309:0 310:0 311:0 312:0 313:0 314:0 315:0 316:0 317:0 318:0 319:0 320:0.00543478 321:0.00543478 322:0 323:0 324:0 325:0 326:0 327:0 328:0 329:0 330:0.00543478 331:0 332:0 333:0 334:0 335:0 336:0.00543478 337:0 338:0 339:0 340:0 341:0.00543478 342:0 343:0 344:0 345:0 346:0 347:0 348:0 349:0 350:0 351:0 352:0 353:0 354:0 355:0 356:0.00543478 357:0 358:0 359:0 360:0 361:0 362:0 363:0 364:0 365:0 366:0 367:0.00543478 368:0 369:0 370:0 371:0 372:0 373:0 374:0 375:0 376:0 377:0 378:0 379:0 380:0 381:0.00543478 382:0 383:0 384:0 385:0 386:0 387:0 388:0 389:0 390:0 391:0 392:0 393:0 394:0 395:0 396:0 397:0 398:0 399:0.00543478 400:0 401:0 402:0 403:0.00543478 404:0 405:0 406:0 407:0 408:0 409:0 410:0 411:0 412:0 413:0 414:0 415:0.00543478 416:0 417:0 418:0 419:0.0108696 420:0 421:0 422:0 423:0 424:0 425:0 426:0 427:0 428:0 429:0 430:0 431:0 432:0 433:0 434:0 435:0 436:0 437:0 438:0 439:0 440:0 441:0 442:0 443:0 444:0.00543478 445:0 446:0 447:0.00543478 448:0 449:0 450:0 451:0 452:0 453:0.00543478 454:0 455:0 456:0 457:0 458:0 459:0.00543478 460:0 461:0 462:0 463:0 464:0 465:0.0163043 466:0 467:0.00543478 468:0.00543478 469:0 470:0 471:0 472:0 473:0 474:0.00543478 475:0 476:0 477:0 478:0 479:0 480:0 481:0 482:0 483:0 484:0 485:0 486:0 487:0 488:0 489:0 490:0 491:0.00543478 492:0 493:0 494:0 495:0 496:0 497:0.0108696 498:0 499:0 500:0 501:0.00543478 502:0 503:0.00543478 504:0 505:0 506:0 507:0 508:0.00543478 509:0 510:0 511:0 512:0 513:0 514:0.0108696 515:0.0108696 516:0 517:0.00543478 518:0 519:0 520:0.0271739 521:0 522:0 523:0 524:0.00543478 525:0 526:0 527:0 528:0 529:0 530:0 531:0 532:0 533:0 534:0 535:0 536:0 537:0 538:0 539:0 540:0.00543478 541:0 542:0.00543478 543:0 544:0 545:0 546:0 547:0.00543478 548:0 549:0 550:0 551:0 552:0 553:0 554:0.0108696 555:0 556:0.00543478 557:0.00543478 558:0 559:0 560:0.00543478 561:0 562:0 563:0 564:0 565:0 566:0 567:0 568:0.00543478 569:0 570:0 571:0 572:0 573:0.00543478 574:0 575:0 576:0 577:0 578:0 579:0 580:0 581:0 582:0.00543478 583:0.00543478 584:0 585:0 586:0 587:0 588:0 589:0 590:0 591:0.0108696 592:0 593:0 594:0.00543478 595:0 596:0 597:0 598:0 599:0 600:0.00543478 601:0 602:0 603:0 604:0 605:0 606:0 607:0 608:0 609:0 610:0 611:0 612:0.00543478 613:0 614:0 615:0 616:0.00543478 617:0 618:0 619:0 620:0.00543478 621:0 622:0 623:0 624:0 625:0 626:0 627:0 628:0.00543478 629:0 630:0 631:0 632:0 633:0.00543478 634:0 635:0.0108696 636:0.00543478 637:0 638:0 639:0 640:0 641:0.00543478 642:0 643:0 644:0.00543478 645:0 646:0 647:0 648:0.00543478 649:0 650:0.0271739 651:0 652:0 653:0.0108696 654:0 655:0 656:0.00543478 657:0 658:0 659:0 660:0.00543478 661:0 662:0.00543478 663:0.00543478 664:0 665:0 666:0 667:0 668:0 669:0.00543478 670:0 671:0.00543478 672:0 673:0 674:0 675:0 676:0 677:0 678:0 679:0 680:0.00543478 681:0 682:0.00543478 683:0 684:0 685:0.00543478 686:0 687:0 688:0 689:0 690:0.00543478 691:0 692:0.0108696 693:0 694:0 695:0 696:0 697:0 698:0 699:0.00543478 700:0 701:0 702:0.00543478 703:0 704:0 705:0 706:0 707:0 708:0 709:0 710:0 711:0 712:0 713:0 714:0 715:0 716:0 717:0 718:0 719:0 720:0 721:0 722:0 723:0.00543478 724:0 725:0 726:0 727:0 728:0 729:0 730:0 731:0 732:0 733:0.00543478 734:0 735:0 736:0 737:0 738:0 739:0 740:0.0163043 741:0 742:0.00543478 743:0 744:0 745:0.00543478 746:0 747:0 748:0 749:0 750:0 751:0 752:0 753:0.0108696 754:0 755:0 756:0 757:0 758:0 759:0 760:0 761:0 762:0 763:0 764:0 765:0 766:0 767:0 768:0 769:0 770:0 771:0 772:0 773:0 774:0 775:0 776:0 777:0 778:0 779:0 780:0 781:0 782:0 783:0 784:0.00543478 785:0 786:0 787:0 788:0 789:0 790:0 791:0 792:0 793:0 794:0 795:0 796:0 797:0 798:0 799:0.00543478 800:0 801:0 802:0 803:0.00543478 804:0 805:0 806:0 807:0 808:0 809:0 810:0 811:0 812:0 813:0 814:0 815:0 816:0 817:0 818:0 819:0 820:0 821:0 822:0 823:0 824:0 825:0 826:0 827:0 828:0 829:0 830:0 831:0 832:0 833:0 834:0 835:0 836:0.0326087 837:0 838:0 839:0 840:0 841:0 842:0 843:0 844:0 845:0 846:0 847:0 848:0 849:0 850:0 851:0 852:0 853:0 854:0 855:0 856:0 857:0 858:0 859:0 860:0 861:0 862:0 863:0.00543478 864:0 865:0 866:0 867:0 868:0 869:0 870:0 871:0 872:0.00543478 873:0 874:0 875:0 876:0 877:0 878:0.00543478 879:0 880:0 881:0.00543478 882:0 883:0 884:0 885:0 886:0 887:0 888:0 889:0 890:0 891:0 892:0 893:0.00543478 894:0 895:0 896:0.00543478 897:0 898:0 899:0.00543478 900:0 901:0 902:0 903:0 904:0 905:0 906:0 907:0 908:0 909:0.00543478 910:0 911:0 912:0 913:0 914:0 915:0.00543478 916:0 917:0 918:0 919:0 920:0 921:0 922:0 923:0 924:0 925:0 926:0.00543478 927:0.00543478 928:0 929:0 930:0 931:0 932:0 933:0 934:0 935:0.00543478 936:0 937:0 938:0 939:0 940:0 941:0 942:0 943:0 944:0.00543478 945:0 946:0 947:0 948:0.00543478 949:0 950:0 951:0 952:0 953:0 954:0 955:0.00543478 956:0 957:0 958:0 959:0.00543478 960:0 961:0 962:0 963:0 964:0 965:0 966:0 967:0 968:0 969:0 970:0 971:0 972:0.00543478 973:0 974:0 975:0 976:0 977:0 978:0 979:0 980:0 981:0 982:0 983:0 984:0 985:0 986:0.00543478 987:0 988:0 989:0.00543478 990:0 991:0 992:0 993:0 994:0 995:0 996:0 997:0 998:0 999:0 1000:0 
0.456153104351664 1:0 2:0 3:0 4:0 5:0 6:0 7:0 8:0 9:0 10:0 11:0 12:0 13:0 14:0 15:0.0116279 16:0 17:0.0232558 18:0 19:0 20:0 21:0 22:0 23:0 24:0 25:0 26:0 27:0 28:0 29:0 30:0 31:0 32:0 33:0 34:0 35:0 36:0 37:0 38:0 39:0 40:0 41:0 42:0 43:0 44:0 45:0 46:0 47:0.0116279 48:0 49:0 50:0.0232558 51:0 52:0 53:0 54:0.0116279 55:0 56:0 57:0 58:0 59:0 60:0 61:0 62:0 63:0 64:0 65:0 66:0 67:0 68:0 69:0 70:0 71:0 72:0 73:0 74:0 75:0 76:0 77:0 78:0 79:0 80:0 81:0 82:0 83:0 84:0 85:0 86:0 87:0 88:0 89:0 90:0 91:0 92:0 93:0 94:0 95:0 96:0 97:0 98:0 99:0 100:0 101:0 102:0.0116279 103:0 104:0 105:0 106:0 107:0 108:0 109:0 110:0 111:0 112:0 113:0 114:0 115:0 116:0 117:0 118:0 119:0 120:0 121:0.0116279 122:0 123:0 124:0 125:0 126:0 127:0.0116279 128:0 129:0.0116279 130:0 131:0 132:0 133:0 134:0 135:0 136:0 137:0 138:0 139:0 140:0 141:0 142:0 143:0 144:0 145:0 146:0.0116279 147:0 148:0 149:0 150:0 151:0 152:0 153:0.0116279 154:0 155:0 156:0 157:0 158:0 159:0 160:0.0116279 161:0 162:0 163:0 164:0 165:0 166:0 167:0 168:0 169:0 170:0 171:0 172:0 173:0 174:0 175:0.0116279 176:0 177:0 178:0 179:0 180:0 181:0 182:0.0116279 183:0 184:0 185:0 186:0 187:0 188:0 189:0 190:0 191:0 192:0 193:0 194:0 195:0 196:0 197:0 198:0 199:0 200:0 201:0 202:0 203:0 204:0 205:0 206:0 207:0 208:0 209:0 210:0 211:0 212:0 213:0 214:0 215:0 216:0 217:0 218:0 219:0 220:0 221:0 222:0 223:0 224:0 225:0 226:0 227:0 228:0 229:0 230:0.0232558 231:0 232:0 233:0 234:0 235:0.0116279 236:0 237:0 238:0 239:0 240:0 241:0 242:0 243:0 244:0 245:0 246:0 247:0 248:0 249:0 250:0 251:0 252:0 253:0 254:0 255:0 256:0 257:0 258:0 259:0 260:0 261:0 262:0 263:0.0116279 264:0 265:0 266:0 267:0 268:0 269:0 270:0 271:0 272:0 273:0 274:0 275:0 276:0 277:0 278:0 279:0 280:0 281:0 282:0 283:0 284:0 285:0 286:0 287:0 288:0 289:0 290:0 291:0 292:0 293:0 294:0 295:0 296:0 297:0 298:0 299:0 300:0 301:0 302:0 303:0 304:0 305:0 306:0 307:0 308:0 309:0 310:0 311:0 312:0 313:0 314:0 315:0 316:0 317:0 318:0 319:0 320:0 321:0 322:0 323:0 324:0 325:0 326:0 327:0 328:0 329:0 330:0 331:0 332:0 333:0.0116279 334:0 335:0 336:0 337:0 338:0 339:0 340:0.0116279 341:0 342:0 343:0 344:0 345:0 346:0 347:0 348:0 349:0 350:0.0232558 351:0 352:0 353:0 354:0 355:0 356:0 357:0 358:0.0232558 359:0 360:0 361:0 362:0 363:0 364:0 365:0 366:0 367:0 368:0 369:0 370:0 371:0 372:0 373:0 374:0 375:0 376:0 377:0 378:0 379:0 380:0 381:0.0116279 382:0 383:0 384:0 385:0 386:0 387:0 388:0 389:0 390:0 391:0 392:0.0116279 393:0 394:0.0116279 395:0 396:0 397:0 398:0 399:0 400:0 401:0 402:0 403:0 404:0 405:0 406:0 407:0 408:0 409:0 410:0 411:0 412:0 413:0 414:0 415:0 416:0 417:0 418:0 419:0 420:0 421:0 422:0 423:0 424:0 425:0 426:0.0116279 427:0 428:0 429:0 430:0 431:0 432:0 433:0 434:0 435:0 436:0.0116279 437:0 438:0 439:0 440:0 441:0 442:0 443:0 444:0 445:0 446:0 447:0 448:0 449:0 450:0 451:0.0232558 452:0 453:0 454:0 455:0 456:0 457:0 458:0.0116279 459:0 460:0 461:0 462:0 463:0 464:0 465:0 466:0 467:0.0116279 468:0.0232558 469:0 470:0.0116279 471:0 472:0 473:0 474:0 475:0 476:0 477:0 478:0 479:0 480:0 481:0 482:0 483:0 484:0 485:0 486:0 487:0 488:0 489:0 490:0 491:0 492:0 493:0 494:0 495:0 496:0.0116279 497:0 498:0 499:0 500:0 501:0 502:0 503:0 504:0 505:0 506:0 507:0 508:0 509:0 510:0 511:0 512:0.0116279 513:0 514:0 515:0.0232558 516:0.0116279 517:0 518:0 519:0 520:0.0697674 521:0 522:0 523:0 524:0 525:0 526:0 527:0 528:0 529:0 530:0 531:0 532:0 533:0 534:0 535:0 536:0 537:0 538:0.0116279 539:0 540:0 541:0 542:0 543:0 544:0 545:0 546:0 547:0.0116279 548:0 549:0 550:0 551:0 552:0.0116279 553:0 554:0 555:0 556:0.0116279 557:0 558:0 559:0 560:0 561:0 562:0 563:0 564:0 565:0 566:0 567:0 568:0 569:0 570:0 571:0 572:0 573:0 574:0 575:0 576:0 577:0 578:0 579:0 580:0 581:0 582:0 583:0 584:0 585:0 586:0 587:0 588:0 589:0 590:0 591:0.0348837 592:0 593:0 594:0 595:0 596:0 597:0 598:0.0116279 599:0 600:0 601:0 602:0.0116279 603:0 604:0 605:0 606:0 607:0 608:0 609:0 610:0 611:0 612:0 613:0 614:0 615:0 616:0 617:0 618:0 619:0 620:0.0116279 621:0 622:0 623:0 624:0 625:0 626:0.0116279 627:0 628:0 629:0 630:0 631:0 632:0 633:0 634:0.0116279 635:0 636:0.0116279 637:0 638:0 639:0 640:0 641:0 642:0 643:0 644:0 645:0 646:0 647:0 648:0 649:0 650:0 651:0 652:0 653:0.0116279 654:0 655:0 656:0 657:0 658:0 659:0 660:0 661:0 662:0 663:0 664:0 665:0 666:0 667:0.0116279 668:0 669:0 670:0 671:0.0116279 672:0 673:0 674:0 675:0 676:0 677:0 678:0 679:0 680:0 681:0 682:0.0465116 683:0 684:0 685:0 686:0 687:0 688:0 689:0 690:0 691:0 692:0 693:0 694:0 695:0 696:0 697:0 698:0 699:0 700:0 701:0 702:0 703:0 704:0 705:0 706:0 707:0 708:0 709:0 710:0 711:0 712:0 713:0 714:0 715:0 716:0 717:0 718:0 719:0 720:0 721:0 722:0 723:0 724:0.0116279 725:0 726:0 727:0 728:0 729:0 730:0 731:0 732:0 733:0 734:0 735:0 736:0 737:0 738:0 739:0 740:0.0116279 741:0 742:0 743:0 744:0 745:0 746:0 747:0 748:0 749:0.0116279 750:0 751:0 752:0 753:0 754:0 755:0 756:0 757:0 758:0 759:0 760:0 761:0 762:0 763:0 764:0 765:0 766:0 767:0 768:0 769:0 770:0 771:0 772:0 773:0 774:0 775:0 776:0 777:0 778:0 779:0 780:0 781:0 782:0.0116279 783:0 784:0 785:0 786:0 787:0 788:0 789:0 790:0 791:0 792:0 793:0 794:0 795:0 796:0.0116279 797:0 798:0 799:0 800:0 801:0 802:0 803:0 804:0 805:0 806:0 807:0 808:0 809:0 810:0 811:0 812:0 813:0 814:0 815:0 816:0 817:0 818:0 819:0 820:0 821:0 822:0 823:0 824:0 825:0 826:0 827:0 828:0 829:0 830:0 831:0 832:0 833:0.0116279 834:0 835:0 836:0 837:0 838:0 839:0 840:0 841:0 842:0 843:0 844:0 845:0 846:0 847:0 848:0 849:0 850:0 851:0 852:0 853:0 854:0 855:0.0116279 856:0 857:0 858:0.0116279 859:0 860:0 861:0 862:0 863:0 864:0 865:0 866:0.0116279 867:0 868:0 869:0 870:0 871:0 872:0 873:0 874:0 875:0 876:0 877:0 878:0.0116279 879:0 880:0 881:0 882:0 883:0 884:0 885:0 886:0 887:0 888:0 889:0 890:0 891:0 892:0 893:0 894:0.0116279 895:0 896:0 897:0 898:0 899:0.0116279 900:0 901:0 902:0 903:0 904:0.0116279 905:0 906:0 907:0 908:0 909:0 910:0 911:0 912:0 913:0 914:0 915:0.0232558 916:0 917:0 918:0 919:0 920:0.0116279 921:0 922:0 923:0 924:0 925:0 926:0 927:0 928:0 929:0 930:0 931:0 932:0 933:0 934:0 935:0 936:0 937:0 938:0 939:0 940:0 941:0 942:0 943:0 944:0 945:0 946:0 947:0 948:0 949:0 950:0 951:0 952:0 953:0 954:0 955:0 956:0 957:0 958:0 959:0 960:0 961:0 962:0 963:0 964:0 965:0 966:0 967:0.0116279 968:0 969:0 970:0 971:0 972:0 973:0 974:0 975:0 976:0 977:0 978:0 979:0 980:0 981:0 982:0 983:0 984:0 985:0 986:0 987:0 988:0 989:0 990:0 991:0 992:0 993:0 994:0 995:0 996:0 997:0 998:0 999:0 1000:0 
1.584044648567691 1:0.00763359 2:0 3:0 4:0 5:0 6:0 7:0 8:0.00763359 9:0 10:0 11:0.00763359 12:0 13:0 14:0 15:0.0152672 16:0 17:0 18:0 19:0.0229008 20:0 21:0.00763359 22:0 23:0 24:0 25:0 26:0 27:0 28:0 29:0 30:0 31:0 32:0 33:0.00763359 34:0 35:0 36:0 37:0 38:0 39:0 40:0 41:0 42:0 43:0 44:0 45:0 46:0.0152672 47:0.00763359 48:0 49:0 50:0 51:0 52:0 53:0 54:0.0152672 55:0.00763359 56:0 57:0 58:0 59:0.00763359 60:0 61:0 62:0 63:0 64:0 65:0 66:0 67:0 68:0 69:0 70:0 71:0 72:0 73:0 74:0 75:0.00763359 76:0 77:0 78:0 79:0 80:0 81:0 82:0 83:0 84:0 85:0 86:0 87:0 88:0 89:0 90:0 91:0 92:0 93:0 94:0.00763359 95:0 96:0 97:0 98:0 99:0 100:0 101:0 102:0 103:0 104:0 105:0 106:0 107:0 108:0 109:0 110:0 111:0 112:0 113:0 114:0 115:0 116:0 117:0 118:0 119:0 120:0 121:0 122:0 123:0 124:0 125:0 126:0 127:0 128:0 129:0 130:0 131:0 132:0 133:0 134:0 135:0.00763359 136:0 137:0 138:0 139:0 140:0 141:0 142:0 143:0 144:0 145:0 146:0 147:0 148:0 149:0 150:0 151:0 152:0 153:0.00763359 154:0 155:0 156:0 157:0.00763359 158:0 159:0 160:0 161:0 162:0 163:0 164:0 165:0 166:0 167:0 168:0 169:0 170:0 171:0 172:0 173:0 174:0 175:0 176:0 177:0 178:0 179:0 180:0 181:0 182:0 183:0 184:0 185:0 186:0 187:0 188:0 189:0 190:0.00763359 191:0.0152672 192:0 193:0 194:0 195:0.00763359 196:0 197:0 198:0 199:0 200:0 201:0 202:0 203:0 204:0.00763359 205:0 206:0 207:0 208:0 209:0 210:0 211:0 212:0 213:0 214:0 215:0 216:0 217:0 218:0 219:0 220:0 221:0 222:0.0152672 223:0 224:0 225:0 226:0 227:0 228:0 229:0 230:0.00763359 231:0 232:0 233:0 234:0 235:0 236:0 237:0 238:0 239:0.00763359 240:0 241:0 242:0 243:0 244:0 245:0 246:0 247:0 248:0 249:0 250:0 251:0 252:0 253:0 254:0 255:0 256:0 257:0 258:0 259:0 260:0 261:0 262:0 263:0.00763359 264:0 265:0 266:0 267:0 268:0.00763359 269:0.00763359 270:0 271:0 272:0 273:0 274:0 275:0 276:0 277:0 278:0.00763359 279:0 280:0 281:0 282:0 283:0 284:0.00763359 285:0 286:0 287:0 288:0 289:0.00763359 290:0 291:0 292:0 293:0 294:0 295:0 296:0 297:0.00763359 298:0 299:0 300:0 301:0 302:0 303:0 304:0.00763359 305:0 306:0 307:0 308:0 309:0 310:0 311:0 312:0 313:0 314:0 315:0 316:0.00763359 317:0 318:0 319:0 320:0 321:0 322:0 323:0 324:0 325:0 326:0 327:0 328:0 329:0 330:0 331:0 332:0 333:0 334:0 335:0 336:0.00763359 337:0 338:0 339:0 340:0 341:0 342:0.00763359 343:0 344:0 345:0 346:0 347:0 348:0 349:0 350:0 351:0 352:0 353:0 354:0 355:0 356:0 357:0 358:0.00763359 359:0 360:0 361:0 362:0 363:0 364:0 365:0 366:0 367:0 368:0 369:0 370:0 371:0 372:0 373:0 374:0.00763359 375:0.00763359 376:0 377:0 378:0 379:0 380:0 381:0 382:0 383:0 384:0 385:0 386:0 387:0 388:0 389:0 390:0 391:0 392:0.00763359 393:0.00763359 394:0.0152672 395:0.00763359 396:0 397:0 398:0 399:0 400:0 401:0.0152672 402:0 403:0 404:0 405:0 406:0 407:0 408:0.00763359 409:0 410:0 411:0 412:0 413:0.00763359 414:0 415:0.00763359 416:0.00763359 417:0 418:0.00763359 419:0 420:0.00763359 421:0 422:0 423:0 424:0 425:0 426:0 427:0 428:0 429:0 430:0 431:0 432:0 433:0 434:0 435:0 436:0 437:0 438:0.00763359 439:0 440:0 441:0 442:0 443:0 444:0 445:0 446:0 447:0 448:0 449:0 450:0 451:0 452:0 453:0 454:0 455:0 456:0 457:0 458:0.00763359 459:0 460:0.00763359 461:0 462:0 463:0 464:0 465:0 466:0 467:0 468:0 469:0 470:0 471:0.00763359 472:0 473:0 474:0 475:0 476:0 477:0 478:0 479:0 480:0 481:0 482:0 483:0 484:0 485:0 486:0 487:0 488:0 489:0 490:0 491:0 492:0 493:0 494:0 495:0 496:0 497:0 498:0 499:0 500:0 501:0 502:0 503:0 504:0.00763359 505:0 506:0 507:0 508:0.0152672 509:0 510:0 511:0 512:0 513:0 514:0 515:0.00763359 516:0 517:0 518:0 519:0 520:0 521:0.00763359 522:0.00763359 523:0 524:0.0152672 525:0 526:0 527:0 528:0 529:0 530:0 531:0 532:0 533:0 534:0 535:0 536:0 537:0 538:0 539:0 540:0 541:0 542:0 543:0 544:0 545:0 546:0 547:0 548:0 549:0 550:0 551:0 552:0 553:0 554:0 555:0 556:0 557:0.00763359 558:0 559:0 560:0 561:0.00763359 562:0 563:0 564:0 565:0.00763359 566:0.00763359 567:0 568:0 569:0.00763359 570:0 571:0 572:0 573:0 574:0 575:0 576:0 577:0 578:0 579:0 580:0 581:0.00763359 582:0 583:0 584:0 585:0 586:0 587:0 588:0 589:0 590:0 591:0.0458015 592:0 593:0 594:0 595:0 596:0 597:0 598:0.00763359 599:0 600:0 601:0 602:0 603:0 604:0 605:0.00763359 606:0 607:0 608:0 609:0 610:0 611:0 612:0 613:0 614:0 615:0 616:0 617:0 618:0 619:0 620:0.00763359 621:0 622:0 623:0 624:0 625:0 626:0 627:0 628:0 629:0.00763359 630:0 631:0.00763359 632:0 633:0 634:0.00763359 635:0 636:0 637:0 638:0 639:0 640:0 641:0 642:0 643:0 644:0 645:0 646:0 647:0 648:0 649:0 650:0.0534351 651:0 652:0.00763359 653:0 654:0.00763359 655:0 656:0 657:0 658:0 659:0 660:0.0229008 661:0 662:0 663:0 664:0 665:0 666:0 667:0 668:0 669:0 670:0.00763359 671:0.00763359 672:0 673:0 674:0 675:0 676:0 677:0 678:0 679:0 680:0.0152672 681:0 682:0 683:0 684:0.00763359 685:0 686:0 687:0 688:0 689:0 690:0 691:0 692:0 693:0 694:0.00763359 695:0 696:0 697:0 698:0 699:0 700:0 701:0 702:0 703:0 704:0.00763359 705:0 706:0 707:0 708:0 709:0 710:0 711:0 712:0.00763359 713:0 714:0 715:0 716:0 717:0 718:0 719:0 720:0 721:0 722:0 723:0 724:0.00763359 725:0 726:0 727:0 728:0 729:0 730:0 731:0 732:0 733:0.00763359 734:0 735:0 736:0 737:0 738:0 739:0 740:0.0152672 741:0 742:0 743:0 744:0 745:0 746:0 747:0 748:0 749:0 750:0 751:0 752:0 753:0 754:0 755:0 756:0 757:0 758:0 759:0 760:0 761:0 762:0 763:0 764:0.00763359 765:0.00763359 766:0 767:0 768:0 769:0 770:0 771:0 772:0 773:0 774:0 775:0 776:0 777:0.00763359 778:0 779:0 780:0 781:0.00763359 782:0 783:0 784:0 785:0 786:0 787:0 788:0 789:0 790:0 791:0.00763359 792:0 793:0 794:0 795:0 796:0 797:0 798:0 799:0 800:0 801:0 802:0 803:0 804:0 805:0 806:0 807:0 808:0 809:0 810:0 811:0 812:0 813:0 814:0 815:0 816:0 817:0 818:0 819:0 820:0 821:0 822:0 823:0 824:0 825:0 826:0 827:0 828:0 829:0 830:0 831:0 832:0 833:0 834:0 835:0 836:0.00763359 837:0 838:0 839:0 840:0 841:0 842:0 843:0 844:0 845:0 846:0 847:0 848:0 849:0 850:0 851:0 852:0 853:0 854:0 855:0 856:0 857:0 858:0.00763359 859:0 860:0 861:0.00763359 862:0 863:0 864:0 865:0 866:0 867:0 868:0 869:0 870:0 871:0.00763359 872:0 873:0 874:0 875:0 876:0 877:0 878:0 879:0 880:0 881:0.00763359 882:0 883:0 884:0 885:0 886:0 887:0 888:0 889:0 890:0 891:0 892:0 893:0 894:0 895:0 896:0 897:0 898:0 899:0 900:0 901:0 902:0 903:0 904:0.00763359 905:0 906:0 907:0 908:0 909:0.00763359 910:0 911:0 912:0 913:0 914:0 915:0 916:0 917:0.00763359 918:0 919:0 920:0 921:0 922:0 923:0 924:0 925:0 926:0 927:0 928:0 929:0 930:0 931:0 932:0 933:0.00763359 934:0 935:0 936:0 937:0 938:0 939:0 940:0.00763359 941:0 942:0 943:0 944:0 945:0 946:0 947:0.0152672 948:0 949:0 950:0 951:0 952:0 953:0 954:0 955:0 956:0 957:0.00763359 958:0 959:0 960:0 961:0 962:0 963:0 964:0 965:0 966:0 967:0 968:0 969:0 970:0 971:0 972:0 973:0 974:0 975:0 976:0 977:0 978:0 979:0 980:0 981:0 982:0 983:0 984:0 985:0 986:0 987:0 988:0 989:0 990:0 991:0 992:0 993:0 994:0 995:0.00763359 996:0 997:0 998:0 999:0 1000:0 
3.495452423224291 1:0 2:0 3:0 4:0 5:0 6:0 7:0 8:0 9:0 10:0 11:0 12:0 13:0 14:0 15:0 16:0 17:0 18:0.00578035 19:0.00578035 20:0 21:0.00578035 22:0 23:0 24:0 25:0 26:0 27:0 28:0 29:0 30:0 31:0.00578035 32:0 33:0 34:0 35:0 36:0.00578035 37:0 38:0 39:0 40:0 41:0 42:0 43:0 44:0 45:0 46:0 47:0 48:0 49:0 50:0 51:0 52:0 53:0 54:0.017341 55:0 56:0 57:0 58:0 59:0 60:0 61:0 62:0 63:0 64:0 65:0 66:0 67:0 68:0 69:0 70:0 71:0 72:0 73:0.00578035 74:0 75:0 76:0 77:0 78:0 79:0.00578035 80:0 81:0 82:0 83:0.00578035 84:0 85:0.00578035 86:0.00578035 87:0 88:0 89:0 90:0 91:0 92:0.0404624 93:0 94:0.00578035 95:0 96:0 97:0.0231214 98:0 99:0 100:0 101:0 102:0.00578035 103:0 104:0 105:0 106:0 107:0 108:0.0115607 109:0 110:0 111:0.00578035 112:0 113:0 114:0 115:0 116:0 117:0 118:0 119:0 120:0 121:0 122:0 123:0 124:0 125:0 126:0 127:0 128:0 129:0 130:0 131:0 132:0 133:0 134:0 135:0 136:0.00578035 137:0 138:0 139:0 140:0 141:0 142:0 143:0.00578035 144:0 145:0 146:0 147:0 148:0 149:0 150:0 151:0 152:0 153:0 154:0 155:0 156:0 157:0 158:0 159:0 160:0 161:0.00578035 162:0 163:0.00578035 164:0 165:0 166:0.00578035 167:0 168:0 169:0 170:0 171:0 172:0 173:0 174:0 175:0 176:0 177:0 178:0 179:0 180:0 181:0 182:0 183:0 184:0 185:0 186:0 187:0 188:0 189:0 190:0.0115607 191:0 192:0 193:0.017341 194:0 195:0.00578035 196:0 197:0 198:0 199:0 200:0 201:0 202:0 203:0 204:0 205:0 206:0 207:0.00578035 208:0 209:0 210:0 211:0 212:0 213:0 214:0.00578035 215:0 216:0 217:0.00578035 218:0 219:0 220:0 221:0 222:0 223:0 224:0 225:0 226:0 227:0 228:0 229:0 230:0 231:0 232:0 233:0 234:0 235:0 236:0.00578035 237:0.00578035 238:0.00578035 239:0 240:0 241:0 242:0.00578035 243:0 244:0 245:0 246:0 247:0 248:0.00578035 249:0 250:0 251:0 252:0 253:0 254:0.00578035 255:0 256:0 257:0 258:0.00578035 259:0 260:0 261:0 262:0 263:0 264:0 265:0 266:0 267:0 268:0 269:0 270:0 271:0 272:0 273:0 274:0 275:0 276:0 277:0 278:0.00578035 279:0 280:0.0115607 281:0 282:0 283:0 284:0 285:0.00578035 286:0 287:0 288:0 289:0 290:0 291:0 292:0 293:0 294:0 295:0 296:0 297:0 298:0 299:0 300:0 301:0 302:0 303:0 304:0 305:0 306:0.00578035 307:0 308:0.00578035 309:0 310:0 311:0 312:0 313:0 314:0 315:0 316:0 317:0 318:0 319:0.00578035 320:0 321:0 322:0.0115607 323:0 324:0 325:0 326:0 327:0.00578035 328:0 329:0 330:0 331:0 332:0 333:0 334:0 335:0 336:0 337:0 338:0 339:0 340:0 341:0.00578035 342:0 343:0 344:0 345:0 346:0 347:0 348:0 349:0 350:0 351:0 352:0 353:0 354:0 355:0.00578035 356:0 357:0 358:0 359:0 360:0 361:0 362:0 363:0 364:0 365:0 366:0.00578035 367:0.00578035 368:0 369:0 370:0 371:0 372:0 373:0 374:0 375:0 376:0 377:0 378:0 379:0.00578035 380:0 381:0 382:0 383:0 384:0 385:0 386:0 387:0 388:0 389:0 390:0 391:0 392:0 393:0 394:0.00578035 395:0 396:0 397:0 398:0 399:0 400:0.0115607 401:0 402:0 403:0 404:0 405:0 406:0 407:0 408:0 409:0 410:0 411:0 412:0 413:0 414:0 415:0 416:0 417:0 418:0 419:0 420:0 421:0 422:0 423:0 424:0 425:0 426:0.00578035 427:0 428:0 429:0 430:0 431:0 432:0 433:0 434:0 435:0 436:0 437:0.00578035 438:0.00578035 439:0 440:0 441:0 442:0 443:0 444:0 445:0 446:0 447:0.00578035 448:0.00578035 449:0 450:0 451:0.0231214 452:0 453:0 454:0.00578035 455:0 456:0 457:0 458:0 459:0 460:0 461:0 462:0 463:0.0231214 464:0 465:0 466:0 467:0 468:0 469:0.0115607 470:0 471:0 472:0 473:0 474:0 475:0 476:0 477:0 478:0 479:0 480:0 481:0 482:0 483:0 484:0 485:0 486:0 487:0 488:0 489:0 490:0 491:0 492:0 493:0 494:0 495:0 496:0 497:0 498:0 499:0 500:0 501:0 502:0 503:0 504:0 505:0.0115607 506:0 507:0 508:0 509:0 510:0 511:0 512:0.00578035 513:0 514:0.00578035 515:0 516:0.00578035 517:0 518:0 519:0 520:0.017341 521:0 522:0.00578035 523:0 524:0.00578035 525:0 526:0 527:0 528:0 529:0 530:0 531:0 532:0 533:0.00578035 534:0 535:0.00578035 536:0 537:0 538:0 539:0 540:0 541:0 542:0 543:0 544:0 545:0 546:0 547:0.0115607 548:0 549:0 550:0 551:0 552:0.00578035 553:0 554:0 555:0 556:0 557:0 558:0 559:0 560:0 561:0 562:0 563:0 564:0 565:0 566:0 567:0 568:0 569:0.00578035 570:0 571:0 572:0 573:0 574:0 575:0 576:0 577:0 578:0 579:0.00578035 580:0 581:0 582:0 583:0 584:0 585:0.00578035 586:0.00578035 587:0.00578035 588:0 589:0 590:0 591:0 592:0 593:0 594:0 595:0 596:0.00578035 597:0 598:0 599:0 600:0 601:0 602:0 603:0 604:0 605:0 606:0 607:0 608:0.00578035 609:0 610:0 611:0 612:0.00578035 613:0 614:0 615:0 616:0.00578035 617:0 618:0 619:0 620:0.00578035 621:0 622:0 623:0 624:0 625:0.00578035 626:0 627:0 628:0 629:0 630:0 631:0 632:0 633:0 634:0 635:0 636:0 637:0 638:0 639:0 640:0 641:0 642:0.017341 643:0 644:0 645:0 646:0 647:0 648:0 649:0 650:0.0231214 651:0 652:0 653:0.00578035 654:0 655:0.00578035 656:0 657:0 658:0 659:0 660:0.00578035 661:0 662:0 663:0 664:0 665:0 666:0 667:0 668:0 669:0 670:0 671:0 672:0 673:0 674:0 675:0 676:0 677:0 678:0 679:0 680:0 681:0 682:0.0289017 683:0 684:0 685:0 686:0 687:0 688:0 689:0.00578035 690:0.0115607 691:0 692:0.00578035 693:0 694:0 695:0 696:0 697:0 698:0 699:0.00578035 700:0 701:0.00578035 702:0 703:0 704:0.00578035 705:0 706:0 707:0 708:0 709:0 710:0 711:0 712:0 713:0 714:0 715:0 716:0 717:0 718:0 719:0 720:0 721:0.0115607 722:0 723:0 724:0.0115607 725:0 726:0 727:0 728:0 729:0 730:0 731:0 732:0 733:0.00578035 734:0 735:0 736:0 737:0 738:0 739:0 740:0 741:0 742:0 743:0.00578035 744:0 745:0.0115607 746:0 747:0 748:0 749:0 750:0 751:0.0115607 752:0 753:0 754:0 755:0 756:0 757:0 758:0.0115607 759:0 760:0 761:0 762:0 763:0 764:0 765:0.00578035 766:0.00578035 767:0 768:0 769:0 770:0 771:0 772:0 773:0 774:0 775:0 776:0 777:0 778:0 779:0 780:0 781:0 782:0 783:0 784:0 785:0 786:0 787:0 788:0 789:0 790:0 791:0 792:0 793:0 794:0 795:0 796:0 797:0 798:0 799:0 800:0 801:0 802:0 803:0 804:0.00578035 805:0 806:0.0231214 807:0.00578035 808:0 809:0.00578035 810:0 811:0 812:0.00578035 813:0 814:0.00578035 815:0 816:0 817:0 818:0 819:0 820:0 821:0 822:0 823:0 824:0 825:0 826:0 827:0 828:0.00578035 829:0 830:0 831:0 832:0 833:0.00578035 834:0 835:0 836:0 837:0 838:0 839:0 840:0 841:0.00578035 842:0 843:0 844:0 845:0 846:0 847:0 848:0 849:0 850:0 851:0.00578035 852:0 853:0 854:0 855:0 856:0 857:0 858:0 859:0 860:0 861:0 862:0 863:0 864:0 865:0 866:0 867:0 868:0 869:0 870:0 871:0 872:0 873:0 874:0 875:0 876:0 877:0 878:0 879:0 880:0 881:0 882:0 883:0 884:0 885:0 886:0 887:0.00578035 888:0 889:0 890:0 891:0 892:0 893:0 894:0 895:0 896:0 897:0 898:0 899:0 900:0.017341 901:0.00578035 902:0 903:0 904:0.00578035 905:0 906:0 907:0 908:0 909:0 910:0 911:0 912:0.00578035 913:0 914:0 915:0 916:0 917:0.00578035 918:0 919:0.00578035 920:0 921:0 922:0 923:0 924:0 925:0 926:0.0115607 927:0 928:0 929:0 930:0 931:0 932:0 933:0 934:0 935:0 936:0 937:0 938:0 939:0 940:0 941:0 942:0 943:0 944:0 945:0 946:0 947:0 948:0 949:0 950:0 951:0 952:0 953:0 954:0 955:0 956:0 957:0 958:0 959:0 960:0 961:0 962:0 963:0.00578035 964:0 965:0 966:0 967:0 968:0 969:0.00578035 970:0 971:0 972:0 973:0 974:0 975:0 976:0 977:0 978:0 979:0 980:0 981:0 982:0 983:0 984:0 985:0 986:0 987:0 988:0 989:0 990:0 991:0 992:0 993:0 994:0.00578035 995:0 996:0 997:0 998:0 999:0 1000:0 
